{"learner":{"attributes":{"scikit_learn":"{\"_estimator_type\": \"classifier\"}"},"feature_names":[],"feature_types":[],"gradient_booster":{"model":{"cats":{"enc":[],"feature_segments":[],"sorted_idx":[]},"gbtree_model_param":{"num_parallel_tree":"1","num_trees":"600"},"iteration_indptr":[0,3,6,9,12,15,18,21,24,27,30,33,36,39,42,45,48,51,54,57,60,63,66,69,72,75,78,81,84,87,90,93,96,99,102,105,108,111,114,117,120,123,126,129,132,135,138,141,144,147,150,153,156,159,162,165,168,171,174,177,180,183,186,189,192,195,198,201,204,207,210,213,216,219,222,225,228,231,234,237,240,243,246,249,252,255,258,261,264,267,270,273,276,279,282,285,288,291,294,297,300,303,306,309,312,315,318,321,324,327,330,333,336,339,342,345,348,351,354,357,360,363,366,369,372,375,378,381,384,387,390,393,396,399,402,405,408,411,414,417,420,423,426,429,432,435,438,441,444,447,450,453,456,459,462,465,468,471,474,477,480,483,486,489,492,495,498,501,504,507,510,513,516,519,522,525,528,531,534,537,540,543,546,549,552,555,558,561,564,567,570,573,576,579,582,585,588,591,594,597,600],"tree_info":[0,1,2,0,1,2,0,1,2,0,1,2,0,1,2,0,1,2,0,1,2,0,1,2,0,1,2,0,1,2,0,1,2,0,1,2,0,1,2,0,1,2,0,1,2,0,1,2,0,1,2,0,1,2,0,1,2,0,1,2,0,1,2,0,1,2,0,1,2,0,1,2,0,1,2,0,1,2,0,1,2,0,1,2,0,1,2,0,1,2,0,1,2,0,1,2,0,1,2,0,1,2,0,1,2,0,1,2,0,1,2,0,1,2,0,1,2,0,1,2,0,1,2,0,1,2,0,1,2,0,1,2,0,1,2,0,1,2,0,1,2,0,1,2,0,1,2,0,1,2,0,1,2,0,1,2,0,1,2,0,1,2,0,1,2,0,1,2,0,1,2,0,1,2,0,1,2,0,1,2,0,1,2,0,1,2,0,1,2,0,1,2,0,1,2,0,1,2,0,1,2,0,1,2,0,1,2,0,1,2,0,1,2,0,1,2,0,1,2,0,1,2,0,1,2,0,1,2,0,1,2,0,1,2,0,1,2,0,1,2,0,1,2,0,1,2,0,1,2,0,1,2,0,1,2,0,1,2,0,1,2,0,1,2,0,1,2,0,1,2,0,1,2,0,1,2,0,1,2,0,1,2,0,1,2,0,1,2,0,1,2,0,1,2,0,1,2,0,1,2,0,1,2,0,1,2,0,1,2,0,1,2,0,1,2,0,1,2,0,1,2,0,1,2,0,1,2,0,1,2,0,1,2,0,1,2,0,1,2,0,1,2,0,1,2,0,1,2,0,1,2,0,1,2,0,1,2,0,1,2,0,1,2,0,1,2,0,1,2,0,1,2,0,1,2,0,1,2,0,1,2,0,1,2,0,1,2,0,1,2,0,1,2,0,1,2,0,1,2,0,1,2,0,1,2,0,1,2,0,1,2,0,1,2,0,1,2,0,1,2,0,1,2,0,1,2,0,1,2,0,1,2,0,1,2,0,1,2,0,1,2,0,1,2,0,1,2,0,1,2,0,1,2,0,1,2,0,1,2,0,1,2,0,1,2,0,1,2,0,1,2,0,1,2,0,1,2,0,1,2,0,1,2,0,1,2,0,1,2,0,1,2,0,1,2,0,1,2,0,1,2,0,1,2,0,1,2,0,1,2,0,1,2,0,1,2,0,1,2,0,1,2,0,1,2,0,1,2,0,1,2,0,1,2,0,1,2,0,1,2,0,1,2,0,1,2,0,1,2,0,1,2,0,1,2,0,1,2,0,1,2,0,1,2,0,1,2,0,1,2,0,1,2,0,1,2,0,1,2,0,1,2,0,1,2,0,1,2,0,1,2,0,1,2,0,1,2,0,1,2],"trees":[{"base_weights":[-6.2627856E-7,-3.3023834E-1,6.622088E-1,-5.4462373E-1,1.0021876E-1,1.7009379E-1,1.3812149E0,-4.4203065E-2,-2.3140518E-2,-1.6676135E-2,4.2218484E-2,-9.73147E-3,4.3928634E-2,6.131886E-2,1.1841188E-1],"categories":[],"categories_nodes":[],"categories_segments":[],"categories_sizes":[],"default_left":[0,0,0,0,0,0,0,0,0,0,0,0,0,0,0],"id":0,"left_children":[1,3,5,7,9,11,13,-1,-1,-1,-1,-1,-1,-1,-1],"loss_changes":[4.0420935E2,1.1386902E2,2.1738702E2,1.5098541E1,7.00771E1,5.1880596E1,3.768582E1,0E0,0E0,0E0,0E0,0E0,0E0,0E0,0E0],"parents":[2147483647,0,0,1,1,2,2,3,3,4,4,5,5,6,6],"right_children":[2,4,6,8,10,12,14,-1,-1,-1,-1,-1,-1,-1,-1],"split_conditions":[1.054E1,1.3E1,1.2E1,8.82E0,6E0,6E0,4E0,-4.4203065E-2,-2.3140518E-2,-1.6676135E-2,4.2218484E-2,-9.73147E-3,4.3928634E-2,6.131886E-2,1.1841188E-1],"split_indices":[0,1,1,0,2,2,2,0,0,0,0,0,0,0,0],"split_type":[0,0,0,0,0,0,0,0,0,0,0,0,0,0,0],"sum_hessian":[1.8463503E3,1.23231E3,6.140403E2,8.224372E2,4.0987286E2,3.652713E2,2.48769E2,5.836651E2,2.387721E2,2.4530853E2,1.6456435E2,2.183938E2,1.4687752E2,9.612403E1,1.5264496E2],"tree_param":{"num_deleted":"0","num_feature":"5","num_nodes":"15","size_leaf_vector":"1"}},{"base_weights":[-8.161945E-7,5.0485325E-1,-4.2231336E-1,1.151704E0,-2.7645893E-2,-6.209304E-2,-5.7012725E-1,1.0862666E-1,3.586641E-2,3.3361096E-2,-2.195609E-2,4.910292E-2,-2.1153612E-2,-4.2253625E-2,-2.672282E-2],"categories":[],"categories_nodes":[],"categories_segments":[],"categories_sizes":[],"default_left":[0,0,0,0,0,0,0,0,0,0,0,0,0,0,0],"id":1,"left_children":[1,3,5,7,9,11,13,-1,-1,-1,-1,-1,-1,-1,-1],"loss_changes":[3.6547955E2,2.689762E2,4.96644E1,8.939148E1,6.2051723E1,5.020672E1,3.944748E0,0E0,0E0,0E0,0E0,0E0,0E0,0E0,0E0],"parents":[2147483647,0,0,1,1,2,2,3,3,4,4,5,5,6,6],"right_children":[2,4,6,8,10,12,14,-1,-1,-1,-1,-1,-1,-1,-1],"split_conditions":[8.59E0,9E0,6E0,6E0,4E0,9.66E0,8.23E0,1.0862666E-1,3.586641E-2,3.3361096E-2,-2.195609E-2,4.910292E-2,-2.1153612E-2,-4.2253625E-2,-2.672282E-2],"split_indices":[0,1,1,2,2,0,4,0,0,0,0,0,0,0,0],"split_type":[0,0,0,0,0,0,0,0,0,0,0,0,0,0,0],"sum_hessian":[1.7122069E3,7.797994E2,9.324076E2,3.5156937E2,4.2823E2,2.7169965E2,6.6070795E2,2.1536298E2,1.3620639E2,1.5474757E2,2.7348245E2,6.453758E1,2.0716206E2,5.59088E2,1.0161995E2],"tree_param":{"num_deleted":"0","num_feature":"5","num_nodes":"15","size_leaf_vector":"1"}},{"base_weights":[9.661379E-7,4.809435E-2,-2.4861515E-1,-1.377956E-1,1.1665715E-1,1.0803989E-1,-7.5546986E-1,-4.3142807E-2,1.1038714E-2,1.3965774E-2,-1.042319E-2,2.6359847E-2,-1.9088151E-2,-2.6572514E-2,-6.2245302E-2],"categories":[],"categories_nodes":[],"categories_segments":[],"categories_sizes":[],"default_left":[0,0,0,0,0,0,0,0,0,0,0,0,0,0,0],"id":2,"left_children":[1,3,5,7,9,11,13,-1,-1,-1,-1,-1,-1,-1,-1],"loss_changes":[2.8724592E1,2.5671638E1,7.04739E1,7.6858055E1,3.239811E1,2.3559818E1,7.7539825E0,0E0,0E0,0E0,0E0,0E0,0E0,0E0,0E0],"parents":[2147483647,0,0,1,1,2,2,3,3,4,4,5,5,6,6],"right_children":[2,4,6,8,10,12,14,-1,-1,-1,-1,-1,-1,-1,-1],"split_conditions":[1.236E1,6.41E0,1.2E1,8E0,1.5E1,6E0,3E0,-4.3142807E-2,1.1038714E-2,1.3965774E-2,-1.042319E-2,2.6359847E-2,-1.9088151E-2,-2.6572514E-2,-6.2245302E-2],"split_indices":[0,0,1,1,1,2,2,0,0,0,0,0,0,0,0],"split_type":[0,0,0,0,0,0,0,0,0,0,0,0,0,0,0],"sum_hessian":[2.4003667E3,2.0119691E3,3.8839752E2,5.41857E2,1.470112E3,2.2843971E2,1.599578E2,2.0644553E2,3.354115E2,1.1207042E3,3.494078E2,1.3396465E2,9.447507E1,4.2988655E1,1.1696913E2],"tree_param":{"num_deleted":"0","num_feature":"5","num_nodes":"15","size_leaf_vector":"1"}},{"base_weights":[-2.847297E-4,-3.2577017E-1,6.0387796E-1,-5.3500646E-1,8.343364E-2,1.5147229E-1,1.2316144E0,-4.3403387E-2,-2.2447912E-2,-1.7444475E-2,3.911761E-2,-1.0081076E-2,4.0123448E-2,5.5519607E-2,1.0461296E-1],"categories":[],"categories_nodes":[],"categories_segments":[],"categories_sizes":[],"default_left":[0,0,0,0,0,0,0,0,0,0,0,0,0,0,0],"id":3,"left_children":[1,3,5,7,9,11,13,-1,-1,-1,-1,-1,-1,-1,-1],"loss_changes":[3.6325873E2,1.02832634E2,1.83488E2,1.4281586E1,6.450481E1,4.7063187E1,3.0020203E1,0E0,0E0,0E0,0E0,0E0,0E0,0E0,0E0],"parents":[2147483647,0,0,1,1,2,2,3,3,4,4,5,5,6,6],"right_children":[2,4,6,8,10,12,14,-1,-1,-1,-1,-1,-1,-1,-1],"split_conditions":[1.048E1,1.3E1,1.2E1,8.82E0,6E0,6E0,4E0,-4.3403387E-2,-2.2447912E-2,-1.7444475E-2,3.911761E-2,-1.0081076E-2,4.0123448E-2,5.5519607E-2,1.0461296E-1],"split_indices":[0,1,1,0,2,2,2,0,0,0,0,0,0,0,0],"split_type":[0,0,0,0,0,0,0,0,0,0,0,0,0,0,0],"sum_hessian":[1.8452704E3,1.1995096E3,6.4576074E2,7.934772E2,4.0603247E2,3.760123E2,2.697484E2,5.667146E2,2.2676259E2,2.391616E2,1.6687088E2,2.214834E2,1.5452892E2,1.0260609E2,1.6714233E2],"tree_param":{"num_deleted":"0","num_feature":"5","num_nodes":"15","size_leaf_vector":"1"}},{"base_weights":[-2.814139E-4,4.7080275E-1,-4.120186E-1,1.0431455E0,-2.646604E-2,-5.6880724E-2,-5.6075567E-1,9.720975E-2,3.290644E-2,3.143094E-2,-2.1369461E-2,4.6214316E-2,-2.0437792E-2,-4.1632213E-2,-2.5989423E-2],"categories":[],"categories_nodes":[],"categories_segments":[],"categories_sizes":[],"default_left":[0,0,0,0,0,0,0,0,0,0,0,0,0,0,0],"id":4,"left_children":[1,3,5,7,9,11,13,-1,-1,-1,-1,-1,-1,-1,-1],"loss_changes":[3.3234976E2,2.274701E2,4.8264923E1,7.292438E1,5.6955177E1,4.587912E1,3.9288483E0,0E0,0E0,0E0,0E0,0E0,0E0,0E0,0E0],"parents":[2147483647,0,0,1,1,2,2,3,3,4,4,5,5,6,6],"right_children":[2,4,6,8,10,12,14,-1,-1,-1,-1,-1,-1,-1,-1],"split_conditions":[8.59E0,9E0,6E0,6E0,4E0,9.66E0,8.23E0,9.720975E-2,3.290644E-2,3.143094E-2,-2.1369461E-2,4.6214316E-2,-2.0437792E-2,-4.1632213E-2,-2.5989423E-2],"split_indices":[0,1,1,2,2,0,4,0,0,0,0,0,0,0,0],"split_type":[0,0,0,0,0,0,0,0,0,0,0,0,0,0,0],"sum_hessian":[1.7114708E3,7.9814233E2,9.133285E2,3.705508E2,4.2759155E2,2.700103E2,6.433182E2,2.3026941E2,1.402814E2,1.5782684E2,2.697647E2,6.621801E1,2.0379231E2,5.436542E2,9.9663994E1],"tree_param":{"num_deleted":"0","num_feature":"5","num_nodes":"15","size_leaf_vector":"1"}},{"base_weights":[4.1975995E-4,4.593146E-2,-2.3492533E-1,-1.8021925E-1,9.8491654E-2,1.0073357E-1,-7.119881E-1,-2.8107807E-2,2.5202563E-2,9.770852E-3,-5.573019E-3,2.4810944E-2,-1.8089904E-2,-2.5167271E-2,-5.8628306E-2],"categories":[],"categories_nodes":[],"categories_segments":[],"categories_sizes":[],"default_left":[0,0,0,0,0,0,0,0,0,0,0,0,0,0,0],"id":5,"left_children":[1,3,5,7,9,11,13,-1,-1,-1,-1,-1,-1,-1,-1],"loss_changes":[2.5721006E1,2.3936213E1,6.2383755E1,4.5560417E1,1.1965572E1,2.098544E1,6.8166046E0,0E0,0E0,0E0,0E0,0E0,0E0,0E0,0E0],"parents":[2147483647,0,0,1,1,2,2,3,3,4,4,5,5,6,6],"right_children":[2,4,6,8,10,12,14,-1,-1,-1,-1,-1,-1,-1,-1],"split_conditions":[1.236E1,4E0,1.2E1,9.66E0,1.07E1,6E0,3E0,-2.8107807E-2,2.5202563E-2,9.770852E-3,-5.573019E-3,2.4810944E-2,-1.8089904E-2,-2.5167271E-2,-5.8628306E-2],"split_indices":[0,1,1,0,0,2,2,0,0,0,0,0,0,0,0],"split_type":[0,0,0,0,0,0,0,0,0,0,0,0,0,0,0],"sum_hessian":[2.3993665E3,2.0112333E3,3.8813315E2,3.788268E2,1.6324065E3,2.2829488E2,1.5983826E2,2.6891858E2,1.0990825E2,1.3265635E3,3.0584302E2,1.3379572E2,9.449916E1,4.29992E1,1.16839066E2],"tree_param":{"num_deleted":"0","num_feature":"5","num_nodes":"15","size_leaf_vector":"1"}},{"base_weights":[-6.860427E-4,-3.1007126E-1,5.710993E-1,-5.218202E-1,9.207181E-2,1.5301529E-1,1.1289786E0,-4.264932E-2,-2.1966163E-2,-1.567596E-2,3.740426E-2,-8.984543E-3,3.8121883E-2,5.163502E-2,9.502666E-2],"categories":[],"categories_nodes":[],"categories_segments":[],"categories_sizes":[],"default_left":[0,0,0,0,0,0,0,0,0,0,0,0,0,0,0],"id":6,"left_children":[1,3,5,7,9,11,13,-1,-1,-1,-1,-1,-1,-1,-1],"loss_changes":[3.2613257E2,1.0191562E2,1.508023E2,1.4068024E1,5.7910072E1,4.0963867E1,2.3784637E1,0E0,0E0,0E0,0E0,0E0,0E0,0E0,0E0],"parents":[2147483647,0,0,1,1,2,2,3,3,4,4,5,5,6,6],"right_children":[2,4,6,8,10,12,14,-1,-1,-1,-1,-1,-1,-1,-1],"split_conditions":[1.054E1,1.3E1,1.2E1,8.82E0,6E0,6E0,4E0,-4.264932E-2,-2.1966163E-2,-1.567596E-2,3.740426E-2,-8.984543E-3,3.8121883E-2,5.163502E-2,9.502666E-2],"split_indices":[0,1,1,0,2,2,2,0,0,0,0,0,0,0,0],"split_type":[0,0,0,0,0,0,0,0,0,0,0,0,0,0,0],"sum_hessian":[1.8415774E3,1.1952836E3,6.462938E2,7.82801E2,4.124825E2,3.7016232E2,2.761315E2,5.497456E2,2.330554E2,2.4086987E2,1.7161264E2,2.1578534E2,1.5437697E2,1.0336619E2,1.7276532E2],"tree_param":{"num_deleted":"0","num_feature":"5","num_nodes":"15","size_leaf_vector":"1"}},{"base_weights":[-5.625594E-4,4.4167686E-1,-4.025055E-1,9.543155E-1,-2.4592988E-2,-5.3786613E-2,-5.518559E-1,8.818471E-2,3.0336656E-2,2.9720962E-2,-2.0755824E-2,3.889585E-2,-2.1434357E-2,-4.104696E-2,-2.5280686E-2],"categories":[],"categories_nodes":[],"categories_segments":[],"categories_sizes":[],"default_left":[0,0,0,0,0,0,0,0,0,0,0,0,0,0,0],"id":7,"left_children":[1,3,5,7,9,11,13,-1,-1,-1,-1,-1,-1,-1,-1],"loss_changes":[3.0405304E2,1.9469598E2,4.6639496E1,6.118817E1,5.2338406E1,4.167562E1,3.9187622E0,0E0,0E0,0E0,0E0,0E0,0E0,0E0,0E0],"parents":[2147483647,0,0,1,1,2,2,3,3,4,4,5,5,6,6],"right_children":[2,4,6,8,10,12,14,-1,-1,-1,-1,-1,-1,-1,-1],"split_conditions":[8.59E0,9E0,6E0,6E0,4E0,3E0,8.23E0,8.818471E-2,3.0336656E-2,2.9720962E-2,-2.0755824E-2,3.889585E-2,-2.1434357E-2,-4.104696E-2,-2.5280686E-2],"split_indices":[0,1,1,2,2,2,4,0,0,0,0,0,0,0,0],"split_type":[0,0,0,0,0,0,0,0,0,0,0,0,0,0,0],"sum_hessian":[1.7085172E3,8.134341E2,8.950831E2,3.8695316E2,4.264809E2,2.6880637E2,6.262768E2,2.4302797E2,1.4392519E2,1.6061017E2,2.6587073E2,7.83752E1,1.9043117E2,5.285088E2,9.776798E1],"tree_param":{"num_deleted":"0","num_feature":"5","num_nodes":"15","size_leaf_vector":"1"}},{"base_weights":[9.282365E-4,4.404966E-2,-2.2250432E-1,-1.3149902E-1,1.0880336E-1,1.9238122E-1,-5.717531E-1,-4.0161222E-2,9.917205E-3,1.3072441E-2,-9.858199E-3,3.0647462E-2,-1.0847631E-2,-1.3014855E-2,-5.0157767E-2],"categories":[],"categories_nodes":[],"categories_segments":[],"categories_sizes":[],"default_left":[0,0,0,0,0,0,0,0,0,0,0,0,0,0,0],"id":8,"left_children":[1,3,5,7,9,11,13,-1,-1,-1,-1,-1,-1,-1,-1],"loss_changes":[2.3112144E1,2.287136E1,5.634056E1,6.5592636E1,2.8619133E1,1.5252733E1,1.1651161E1,0E0,0E0,0E0,0E0,0E0,0E0,0E0,0E0],"parents":[2147483647,0,0,1,1,2,2,3,3,4,4,5,5,6,6],"right_children":[2,4,6,8,10,12,14,-1,-1,-1,-1,-1,-1,-1,-1],"split_conditions":[1.236E1,6.41E0,9E0,8E0,1.5E1,6E0,3E0,-4.0161222E-2,9.917205E-3,1.3072441E-2,-9.858199E-3,3.0647462E-2,-1.0847631E-2,-1.3014855E-2,-5.0157767E-2],"split_indices":[0,0,1,1,1,2,2,0,0,0,0,0,0,0,0],"split_type":[0,0,0,0,0,0,0,0,0,0,0,0,0,0,0],"sum_hessian":[2.3968193E3,2.00975E3,3.8706937E2,5.412847E2,1.4684652E3,1.7711594E2,2.0995343E2,2.0626608E2,3.3501862E2,1.1192449E3,3.4922034E2,1.0362959E2,7.3486336E1,5.7912506E1,1.5204092E2],"tree_param":{"num_deleted":"0","num_feature":"5","num_nodes":"15","size_leaf_vector":"1"}},{"base_weights":[-1.1529143E-3,-3.065413E-1,5.260982E-1,-5.13395E-1,7.6467745E-2,1.3634798E-1,1.0299277E0,-4.2054363E-2,-2.1550013E-2,-1.6439805E-2,3.479404E-2,-1.4029301E-2,3.0225934E-2,4.7381222E-2,8.641887E-2],"categories":[],"categories_nodes":[],"categories_segments":[],"categories_sizes":[],"default_left":[0,0,0,0,0,0,0,0,0,0,0,0,0,0,0],"id":9,"left_children":[1,3,5,7,9,11,13,-1,-1,-1,-1,-1,-1,-1,-1],"loss_changes":[2.958748E2,9.222629E1,1.3220349E2,1.3386963E1,5.3659904E1,3.8010532E1,2.0390228E1,0E0,0E0,0E0,0E0,0E0,0E0,0E0,0E0],"parents":[2147483647,0,0,1,1,2,2,3,3,4,4,5,5,6,6],"right_children":[2,4,6,8,10,12,14,-1,-1,-1,-1,-1,-1,-1,-1],"split_conditions":[1.048E1,1.3E1,1.2E1,8.77E0,6E0,5E0,4E0,-4.2054363E-2,-2.1550013E-2,-1.6439805E-2,3.479404E-2,-1.4029301E-2,3.0225934E-2,4.7381222E-2,8.641887E-2],"split_indices":[0,1,1,0,2,2,2,0,0,0,0,0,0,0,0],"split_type":[0,0,0,0,0,0,0,0,0,0,0,0,0,0,0],"sum_hessian":[1.8355431E3,1.1625834E3,6.729597E2,7.546664E2,4.0791702E2,3.8015317E2,2.9280655E2,5.281903E2,2.264761E2,2.3466147E2,1.7325557E2,1.7780537E2,2.023478E2,1.0901896E2,1.837876E2],"tree_param":{"num_deleted":"0","num_feature":"5","num_nodes":"15","size_leaf_vector":"1"}},{"base_weights":[-8.66953E-4,3.6270544E-1,-4.4818228E-1,8.2676345E-1,-7.850929E-2,-6.299728E-2,-5.405932E-1,7.778496E-2,2.3544371E-2,2.2056751E-2,-2.2429751E-2,5.639662E-2,-2.3176711E-2,-4.0538944E-2,-2.4961157E-2],"categories":[],"categories_nodes":[],"categories_segments":[],"categories_sizes":[],"default_left":[0,0,0,0,0,0,0,0,0,0,0,0,0,0,0],"id":10,"left_children":[1,3,5,7,9,11,13,-1,-1,-1,-1,-1,-1,-1,-1],"loss_changes":[2.7740686E2,1.9272354E2,2.7188873E1,6.3612885E1,4.6116665E1,3.4993187E1,4.166092E0,0E0,0E0,0E0,0E0,0E0,0E0,0E0,0E0],"parents":[2147483647,0,0,1,1,2,2,3,3,4,4,5,5,6,6],"right_children":[2,4,6,8,10,12,14,-1,-1,-1,-1,-1,-1,-1,-1],"split_conditions":[9.12E0,9E0,4E0,6E0,4E0,2E0,8.09E0,7.778496E-2,2.3544371E-2,2.2056751E-2,-2.2429751E-2,5.639662E-2,-2.3176711E-2,-4.0538944E-2,-2.4961157E-2],"split_indices":[0,1,1,2,2,2,4,0,0,0,0,0,0,0,0],"split_type":[0,0,0,0,0,0,0,0,0,0,0,0,0,0,0],"sum_hessian":[1.7037391E3,9.399492E2,7.6379E2,4.5768954E2,4.8225964E2,1.4811255E2,6.156774E2,2.8887225E2,1.688173E2,1.8346039E2,2.9879926E2,3.445858E1,1.1365397E2,5.0729245E2,1.0838498E2],"tree_param":{"num_deleted":"0","num_feature":"5","num_nodes":"15","size_leaf_vector":"1"}},{"base_weights":[1.5019336E-3,4.2137712E-2,-2.0962062E-1,-1.2530047E-1,1.0386451E-1,1.8561532E-1,-5.4365695E-1,-3.4812335E-2,1.1875876E-2,1.0992283E-2,-1.601376E-2,2.9366951E-2,-1.0126352E-2,-1.2413428E-2,-4.7744807E-2],"categories":[],"categories_nodes":[],"categories_segments":[],"categories_sizes":[],"default_left":[0,0,0,0,0,0,0,0,0,0,0,0,0,0,0],"id":11,"left_children":[1,3,5,7,9,11,13,-1,-1,-1,-1,-1,-1,-1,-1],"loss_changes":[2.0545015E1,2.076863E1,5.1132538E1,5.948872E1,2.5995121E1,1.3796385E1,1.0513596E1,0E0,0E0,0E0,0E0,0E0,0E0,0E0,0E0],"parents":[2147483647,0,0,1,1,2,2,3,3,4,4,5,5,6,6],"right_children":[2,4,6,8,10,12,14,-1,-1,-1,-1,-1,-1,-1,-1],"split_conditions":[1.236E1,6.41E0,9E0,9E0,1.7E1,6E0,3E0,-3.4812335E-2,1.1875876E-2,1.0992283E-2,-1.601376E-2,2.9366951E-2,-1.0126352E-2,-1.2413428E-2,-4.7744807E-2],"split_indices":[0,0,1,1,1,2,2,0,0,0,0,0,0,0,0],"split_type":[0,0,0,0,0,0,0,0,0,0,0,0,0,0,0],"sum_hessian":[2.3927373E3,2.0072018E3,3.8553543E2,5.40373E2,1.4668289E3,1.767944E2,2.0874103E2,2.3866554E2,3.017075E2,1.2651368E3,2.0169199E2,1.0333745E2,7.3456955E1,5.7868023E1,1.5087302E2],"tree_param":{"num_deleted":"0","num_feature":"5","num_nodes":"15","size_leaf_vector":"1"}},{"base_weights":[-1.6446266E-3,-2.9754364E-1,4.9361816E-1,-5.03274E-1,7.324001E-2,5.4388113E-2,8.757245E-1,-4.1420285E-2,-2.0903574E-2,-2.3007143E-2,2.6942614E-2,-1.6051073E-2,2.860078E-2,3.7501667E-2,7.579473E-2],"categories":[],"categories_nodes":[],"categories_segments":[],"categories_sizes":[],"default_left":[0,0,0,0,0,0,0,0,0,0,0,0,0,0,0],"id":12,"left_children":[1,3,5,7,9,11,13,-1,-1,-1,-1,-1,-1,-1,-1],"loss_changes":[2.681166E2,8.740089E1,1.147941E2,1.3158035E1,5.1428555E1,3.2187645E1,2.5175323E1,0E0,0E0,0E0,0E0,0E0,0E0,0E0,0E0],"parents":[2147483647,0,0,1,1,2,2,3,3,4,4,5,5,6,6],"right_children":[2,4,6,8,10,12,14,-1,-1,-1,-1,-1,-1,-1,-1],"split_conditions":[1.048E1,1.3E1,1E1,8.77E0,7.06E0,6E0,4E0,-4.1420285E-2,-2.0903574E-2,-2.3007143E-2,2.6942614E-2,-1.6051073E-2,2.860078E-2,3.7501667E-2,7.579473E-2],"split_indices":[0,1,1,0,0,2,2,0,0,0,0,0,0,0,0],"split_type":[0,0,0,0,0,0,0,0,0,0,0,0,0,0,0],"sum_hessian":[1.8275486E3,1.1442849E3,6.832637E2,7.3571436E2,4.0857062E2,3.1840286E2,3.648608E2,5.1238525E2,2.2332906E2,1.7842146E2,2.3014915E2,1.7699376E2,1.4140909E2,1.3945851E2,2.2540228E2],"tree_param":{"num_deleted":"0","num_feature":"5","num_nodes":"15","size_leaf_vector":"1"}},{"base_weights":[-1.2444741E-3,3.9145368E-1,-3.841392E-1,8.114853E-1,-2.023824E-2,-4.269086E-2,-5.3599787E-1,7.4262016E-2,2.588164E-2,2.6910307E-2,-1.9571653E-2,4.129364E-2,-1.8760728E-2,-4.001753E-2,-2.3988284E-2],"categories":[],"categories_nodes":[],"categories_segments":[],"categories_sizes":[],"default_left":[0,0,0,0,0,0,0,0,0,0,0,0,0,0,0],"id":13,"left_children":[1,3,5,7,9,11,13,-1,-1,-1,-1,-1,-1,-1,-1],"loss_changes":[2.5552243E2,1.4509103E2,4.4591988E1,4.5361603E1,4.467711E1,3.806718E1,3.9113007E0,0E0,0E0,0E0,0E0,0E0,0E0,0E0,0E0],"parents":[2147483647,0,0,1,1,2,2,3,3,4,4,5,5,6,6],"right_children":[2,4,6,8,10,12,14,-1,-1,-1,-1,-1,-1,-1,-1],"split_conditions":[8.59E0,9E0,6E0,6E0,4E0,9.66E0,8.23E0,7.4262016E-2,2.588164E-2,2.6910307E-2,-1.9571653E-2,4.129364E-2,-1.8760728E-2,-4.001753E-2,-2.3988284E-2],"split_indices":[0,1,1,2,2,0,4,0,0,0,0,0,0,0,0],"split_type":[0,0,0,0,0,0,0,0,0,0,0,0,0,0,0],"sum_hessian":[1.6973809E3,8.37952E2,8.5942883E2,4.1429428E2,4.2365775E2,2.6495932E2,5.9446954E2,2.6390048E2,1.503938E2,1.6528436E2,2.5837338E2,6.916257E1,1.9579674E2,5.0018692E2,9.428264E1],"tree_param":{"num_deleted":"0","num_feature":"5","num_nodes":"15","size_leaf_vector":"1"}},{"base_weights":[2.1440424E-3,4.060481E-2,-1.984263E-1,-1.6138613E-1,8.8390626E-2,1.7738394E-1,-5.178089E-1,-4.2802453E-2,8.072344E-3,9.06294E-3,-1.1442205E-2,2.8077547E-2,-9.622983E-3,-1.1861431E-2,-4.554694E-2],"categories":[],"categories_nodes":[],"categories_segments":[],"categories_sizes":[],"default_left":[0,0,0,0,0,0,0,0,0,0,0,0,0,0,0],"id":14,"left_children":[1,3,5,7,9,11,13,-1,-1,-1,-1,-1,-1,-1,-1],"loss_changes":[1.843253E1,1.93666E1,4.6239082E1,4.7884476E1,1.680257E1,1.2549742E1,9.521156E0,0E0,0E0,0E0,0E0,0E0,0E0,0E0,0E0],"parents":[2147483647,0,0,1,1,2,2,3,3,4,4,5,5,6,6],"right_children":[2,4,6,8,10,12,14,-1,-1,-1,-1,-1,-1,-1,-1],"split_conditions":[1.236E1,5.7E0,9E0,8E0,1.7E1,6E0,3E0,-4.2802453E-2,8.072344E-3,9.06294E-3,-1.1442205E-2,2.8077547E-2,-9.622983E-3,-1.1861431E-2,-4.554694E-2],"split_indices":[0,0,1,1,1,2,2,0,0,0,0,0,0,0,0],"split_type":[0,0,0,0,0,0,0,0,0,0,0,0,0,0,0],"sum_hessian":[2.387418E3,2.003945E3,3.8347293E2,3.8292813E2,1.6210168E3,1.7637779E2,2.0709514E2,1.453302E2,2.3759792E2,1.3941068E3,2.2691E2,1.0295091E2,7.342688E1,5.780563E1,1.492895E2],"tree_param":{"num_deleted":"0","num_feature":"5","num_nodes":"15","size_leaf_vector":"1"}},{"base_weights":[-2.260247E-3,-3.5870862E-1,3.7606496E-1,-5.4576194E-1,-3.0756703E-2,-4.4768196E-2,7.517482E-1,-4.0796928E-2,-2.5007375E-2,-2.4014436E-2,2.5272632E-2,-2.0559717E-2,1.9461803E-2,2.696879E-2,6.814423E-2],"categories":[],"categories_nodes":[],"categories_segments":[],"categories_sizes":[],"default_left":[0,0,0,0,0,0,0,0,0,0,0,0,0,0,0],"id":15,"left_children":[1,3,5,7,9,11,13,-1,-1,-1,-1,-1,-1,-1,-1],"loss_changes":[2.4548582E2,5.7480904E1,1.3965144E2,3.960266E0,4.1908596E1,3.362781E1,3.7545258E1,0E0,0E0,0E0,0E0,0E0,0E0,0E0,0E0],"parents":[2147483647,0,0,1,1,2,2,3,3,4,4,5,5,6,6],"right_children":[2,4,6,8,10,12,14,-1,-1,-1,-1,-1,-1,-1,-1],"split_conditions":[9.43E0,1.3E1,1E1,8.77E0,6E0,6E0,4E0,-4.0796928E-2,-2.5007375E-2,-2.4014436E-2,2.5272632E-2,-2.0559717E-2,1.9461803E-2,2.696879E-2,6.814423E-2],"split_indices":[0,1,1,0,2,2,2,0,0,0,0,0,0,0,0],"split_type":[0,0,0,0,0,0,0,0,0,0,0,0,0,0,0],"sum_hessian":[1.8183898E3,9.3629156E2,8.820982E2,5.9580133E2,3.404903E2,4.1646402E2,4.656342E2,4.9618698E2,9.961432E1,1.8953374E2,1.5095654E2,2.3518048E2,1.8128352E2,1.7656152E2,2.890727E2],"tree_param":{"num_deleted":"0","num_feature":"5","num_nodes":"15","size_leaf_vector":"1"}},{"base_weights":[-1.5436691E-3,3.2224822E-1,-4.2929608E-1,7.636972E-1,-2.9838745E-2,-4.9264893E-2,-5.240056E-1,7.045978E-2,2.2843387E-2,2.4723852E-2,-1.925538E-2,5.4241095E-2,-2.2100635E-2,-3.9484285E-2,-2.3540767E-2],"categories":[],"categories_nodes":[],"categories_segments":[],"categories_sizes":[],"default_left":[0,0,0,0,0,0,0,0,0,0,0,0,0,0,0],"id":16,"left_children":[1,3,5,7,9,11,13,-1,-1,-1,-1,-1,-1,-1,-1],"loss_changes":[2.342523E2,1.4964462E2,2.6201218E1,4.504521E1,5.0492043E1,3.240994E1,4.195282E0,0E0,0E0,0E0,0E0,0E0,0E0,0E0,0E0],"parents":[2147483647,0,0,1,1,2,2,3,3,4,4,5,5,6,6],"right_children":[2,4,6,8,10,12,14,-1,-1,-1,-1,-1,-1,-1,-1],"split_conditions":[9.12E0,8E0,4E0,6E0,4E0,2E0,8.09E0,7.045978E-2,2.2843387E-2,2.4723852E-2,-1.925538E-2,5.4241095E-2,-2.2100635E-2,-3.9484285E-2,-2.3540767E-2],"split_indices":[0,1,1,2,2,2,4,0,0,0,0,0,0,0,0],"split_type":[0,0,0,0,0,0,0,0,0,0,0,0,0,0,0],"sum_hessian":[1.6893198E3,9.616414E2,7.2767847E2,4.2615564E2,5.354858E2,1.4547322E2,5.822052E2,2.7316406E2,1.5299156E2,2.0884743E2,3.2663837E2,3.507637E1,1.1039684E2,4.7816382E2,1.04041405E2],"tree_param":{"num_deleted":"0","num_feature":"5","num_nodes":"15","size_leaf_vector":"1"}},{"base_weights":[2.8215596E-3,3.164673E-2,-2.420846E-1,-1.5683857E-1,7.282159E-2,1.3531318E-1,-5.4924005E-1,-4.0956866E-2,7.3634028E-3,9.678487E-3,-9.345442E-3,2.2931516E-2,-8.739593E-3,-4.7888048E-2,-6.2761866E-3],"categories":[],"categories_nodes":[],"categories_segments":[],"categories_sizes":[],"default_left":[0,0,0,0,0,0,0,0,0,0,0,0,0,0,0],"id":17,"left_children":[1,3,5,7,9,11,13,-1,-1,-1,-1,-1,-1,-1,-1],"loss_changes":[1.6824825E1,1.6559446E1,2.9167171E1,4.2995537E1,2.3656733E1,5.714321E0,8.527481E0,0E0,0E0,0E0,0E0,0E0,0E0,0E0,0E0],"parents":[2147483647,0,0,1,1,2,2,3,3,4,4,5,5,6,6],"right_children":[2,4,6,8,10,12,14,-1,-1,-1,-1,-1,-1,-1,-1],"split_conditions":[1.292E1,5.7E0,9E0,8E0,1.5E1,6E0,7.73E0,-4.0956866E-2,7.3634028E-3,9.678487E-3,-9.345442E-3,2.2931516E-2,-8.739593E-3,-4.7888048E-2,-6.2761866E-3],"split_indices":[0,0,1,1,1,2,4,0,0,0,0,0,0,0,0],"split_type":[0,0,0,0,0,0,0,0,0,0,0,0,0,0,0],"sum_hessian":[2.3812163E3,2.1312424E3,2.4997398E2,3.8159836E2,1.749644E3,1.12413055E2,1.3756093E2,1.4438457E2,2.3721379E2,1.328579E3,4.2106506E2,6.449071E1,4.7922348E1,1.05972244E2,3.158868E1],"tree_param":{"num_deleted":"0","num_feature":"5","num_nodes":"15","size_leaf_vector":"1"}},{"base_weights":[-2.888275E-3,-2.7711666E-1,4.494988E-1,-4.8299807E-1,7.248629E-2,1.24203645E-1,8.4880555E-1,-4.0217075E-2,-2.0176344E-2,-2.2346761E-2,2.4978995E-2,-1.2194202E-2,2.584464E-2,3.7642617E-2,7.1909204E-2],"categories":[],"categories_nodes":[],"categories_segments":[],"categories_sizes":[],"default_left":[0,0,0,0,0,0,0,0,0,0,0,0,0,0,0],"id":18,"left_children":[1,3,5,7,9,11,13,-1,-1,-1,-1,-1,-1,-1,-1],"loss_changes":[2.2455862E2,8.115025E1,8.863075E1,1.2481018E1,4.6737312E1,2.7673725E1,1.6463287E1,0E0,0E0,0E0,0E0,0E0,0E0,0E0,0E0],"parents":[2147483647,0,0,1,1,2,2,3,3,4,4,5,5,6,6],"right_children":[2,4,6,8,10,12,14,-1,-1,-1,-1,-1,-1,-1,-1],"split_conditions":[1.054E1,1.3E1,1.2E1,8.77E0,7.06E0,5E0,3E0,-4.0217075E-2,-2.0176344E-2,-2.2346761E-2,2.4978995E-2,-1.2194202E-2,2.584464E-2,3.7642617E-2,7.1909204E-2],"split_indices":[0,1,1,0,0,2,3,0,0,0,0,0,0,0,0],"split_type":[0,0,0,0,0,0,0,0,0,0,0,0,0,0,0],"sum_hessian":[1.8081151E3,1.1259645E3,6.8215063E2,7.0840356E2,4.175609E2,3.766356E2,3.0551508E2,4.8059378E2,2.2780977E2,1.7557225E2,2.4198866E2,1.6994211E2,2.0669347E2,1.12846954E2,1.926681E2],"tree_param":{"num_deleted":"0","num_feature":"5","num_nodes":"15","size_leaf_vector":"1"}},{"base_weights":[-1.9492271E-3,3.830236E-1,-3.34125E-1,6.510335E-1,-1.5259936E-1,1.9088024E-2,-5.0040704E-1,5.5458557E-2,2.106238E-3,1.4837404E-2,-2.7677298E-2,3.7748687E-2,-1.7629791E-2,-3.8581256E-2,-1.9358948E-2],"categories":[],"categories_nodes":[],"categories_segments":[],"categories_sizes":[],"default_left":[0,0,0,0,0,0,0,0,0,0,0,0,0,0,0],"id":19,"left_children":[1,3,5,7,9,11,13,-1,-1,-1,-1,-1,-1,-1,-1],"loss_changes":[2.151539E2,1.1197133E2,5.3055542E1,4.5543777E1,2.3159763E1,4.1015587E1,6.8247223E0,0E0,0E0,0E0,0E0,0E0,0E0,0E0,0E0],"parents":[2147483647,0,0,1,1,2,2,3,3,4,4,5,5,6,6],"right_children":[2,4,6,8,10,12,14,-1,-1,-1,-1,-1,-1,-1,-1],"split_conditions":[8.17E0,1.2E1,6E0,8E0,4E0,9.66E0,8.09E0,5.5458557E-2,2.106238E-3,1.4837404E-2,-2.7677298E-2,3.7748687E-2,-1.7629791E-2,-3.8581256E-2,-1.9358948E-2],"split_indices":[0,1,1,2,2,0,4,0,0,0,0,0,0,0,0],"split_type":[0,0,0,0,0,0,0,0,0,0,0,0,0,0,0],"sum_hessian":[1.6804843E3,7.7831195E2,9.021723E2,5.186029E2,2.59709E2,2.8905417E2,6.131181E2,4.2228073E2,9.6322174E1,1.0386999E2,1.5583904E2,9.865574E1,1.9039842E2,4.986065E2,1.14511604E2],"tree_param":{"num_deleted":"0","num_feature":"5","num_nodes":"15","size_leaf_vector":"1"}},{"base_weights":[3.5787376E-3,3.885221E-2,-1.8199132E-1,-1.1509543E-1,9.535325E-2,8.045507E-2,-5.680585E-1,-2.40752E-2,1.8888835E-2,9.942382E-3,-1.376122E-2,1.9731252E-2,-1.4114598E-2,-2.182241E-2,-4.953708E-2],"categories":[],"categories_nodes":[],"categories_segments":[],"categories_sizes":[],"default_left":[0,0,0,0,0,0,0,0,0,0,0,0,0,0,0],"id":20,"left_children":[1,3,5,7,9,11,13,-1,-1,-1,-1,-1,-1,-1,-1],"loss_changes":[1.5559207E1,1.7383617E1,3.851394E1,4.7367233E1,1.99466E1,1.2948707E1,5.281952E0,0E0,0E0,0E0,0E0,0E0,0E0,0E0,0E0],"parents":[2147483647,0,0,1,1,2,2,3,3,4,4,5,5,6,6],"right_children":[2,4,6,8,10,12,14,-1,-1,-1,-1,-1,-1,-1,-1],"split_conditions":[1.236E1,6.41E0,1.2E1,1.2E1,1.7E1,6E0,3E0,-2.40752E-2,1.8888835E-2,9.942382E-3,-1.376122E-2,1.9731252E-2,-1.4114598E-2,-2.182241E-2,-4.953708E-2],"split_indices":[0,0,1,1,1,2,3,0,0,0,0,0,0,0,0],"split_type":[0,0,0,0,0,0,0,0,0,0,0,0,0,0,0],"sum_hessian":[2.3749316E3,1.9962682E3,3.7866345E2,5.3567755E2,1.4605906E3,2.258937E2,1.5276973E2,3.3602472E2,1.9965285E2,1.259684E3,2.0090666E2,1.3179208E2,9.410163E1,5.501101E1,9.775873E1],"tree_param":{"num_deleted":"0","num_feature":"5","num_nodes":"15","size_leaf_vector":"1"}},{"base_weights":[-3.5383306E-3,-3.4117794E-1,3.3644292E-1,-5.2822894E-1,-3.1058129E-2,-4.5075804E-2,6.657092E-1,-3.967269E-2,-2.3647347E-2,-2.3393566E-2,2.3675088E-2,-1.9681739E-2,1.7513616E-2,2.2921575E-2,6.0942322E-2],"categories":[],"categories_nodes":[],"categories_segments":[],"categories_sizes":[],"default_left":[0,0,0,0,0,0,0,0,0,0,0,0,0,0,0],"id":21,"left_children":[1,3,5,7,9,11,13,-1,-1,-1,-1,-1,-1,-1,-1],"loss_changes":[2.0645975E2,5.2329453E1,1.1260951E2,3.9369812E0,3.8236244E1,2.907614E1,3.305844E1,0E0,0E0,0E0,0E0,0E0,0E0,0E0,0E0],"parents":[2147483647,0,0,1,1,2,2,3,3,4,4,5,5,6,6],"right_children":[2,4,6,8,10,12,14,-1,-1,-1,-1,-1,-1,-1,-1],"split_conditions":[9.43E0,1.3E1,1E1,8.77E0,6E0,6E0,4E0,-3.967269E-2,-2.3647347E-2,-2.3393566E-2,2.3675088E-2,-1.9681739E-2,1.7513616E-2,2.2921575E-2,6.0942322E-2],"split_indices":[0,1,1,0,2,2,2,0,0,0,0,0,0,0,0],"split_type":[0,0,0,0,0,0,0,0,0,0,0,0,0,0,0],"sum_hessian":[1.7965687E3,9.013868E2,8.95182E2,5.618186E2,3.395682E2,4.1508676E2,4.800952E2,4.6563464E2,9.6183945E1,1.865362E2,1.5303201E2,2.3068427E2,1.844025E2,1.820878E2,2.9800742E2],"tree_param":{"num_deleted":"0","num_feature":"5","num_nodes":"15","size_leaf_vector":"1"}},{"base_weights":[-2.3730858E-3,2.8730407E-1,-4.111897E-1,6.317971E-1,-7.4633144E-2,-3.7684828E-2,-5.08223E-1,5.9460998E-2,1.6963227E-2,-2.2740062E-2,1.8487321E-2,4.132583E-2,-2.5871541E-2,-3.849836E-2,-2.2169769E-2],"categories":[],"categories_nodes":[],"categories_segments":[],"categories_sizes":[],"default_left":[0,0,0,0,0,0,0,0,0,0,0,0,0,0,0],"id":22,"left_children":[1,3,5,7,9,11,13,-1,-1,-1,-1,-1,-1,-1,-1],"loss_changes":[1.9813974E2,1.2214571E2,2.5128426E1,4.2331573E1,4.063802E1,3.0271078E1,4.2294006E0,0E0,0E0,0E0,0E0,0E0,0E0,0E0,0E0],"parents":[2147483647,0,0,1,1,2,2,3,3,4,4,5,5,6,6],"right_children":[2,4,6,8,10,12,14,-1,-1,-1,-1,-1,-1,-1,-1],"split_conditions":[9.12E0,9E0,4E0,6E0,6.91E0,3E0,8.09E0,5.9460998E-2,1.6963227E-2,-2.2740062E-2,1.8487321E-2,4.132583E-2,-2.5871541E-2,-3.849836E-2,-2.2169769E-2],"split_indices":[0,1,1,2,4,2,4,0,0,0,0,0,0,0,0],"split_type":[0,0,0,0,0,0,0,0,0,0,0,0,0,0,0],"sum_hessian":[1.671129E3,9.7825757E2,6.9287146E2,5.0082507E2,4.7743246E2,1.4316862E2,5.497028E2,3.2052457E2,1.8030052E2,2.746155E2,2.0281696E2,4.9231552E1,9.3937065E1,4.497715E2,9.993133E1],"tree_param":{"num_deleted":"0","num_feature":"5","num_nodes":"15","size_leaf_vector":"1"}},{"base_weights":[4.359992E-3,3.0723857E-2,-2.221485E-1,-1.8002363E-1,6.349579E-2,3.157177E-1,-4.0834597E-1,-3.9186932E-2,8.524662E-3,7.8680655E-3,-6.295815E-3,3.886654E-2,6.648779E-3,-3.9386336E-2,7.2570005E-3],"categories":[],"categories_nodes":[],"categories_segments":[],"categories_sizes":[],"default_left":[0,0,0,0,0,0,0,0,0,0,0,0,0,0,0],"id":23,"left_children":[1,3,5,7,9,11,13,-1,-1,-1,-1,-1,-1,-1,-1],"loss_changes":[1.4153177E1,1.4672926E1,2.4875797E1,3.2843536E1,1.380122E1,3.3366208E0,1.4596029E1,0E0,0E0,0E0,0E0,0E0,0E0,0E0,0E0],"parents":[2147483647,0,0,1,1,2,2,3,3,4,4,5,5,6,6],"right_children":[2,4,6,8,10,12,14,-1,-1,-1,-1,-1,-1,-1,-1],"split_conditions":[1.292E1,5.28E0,5E0,9E0,1.5E1,4E0,7.85E0,-3.9186932E-2,8.524662E-3,7.8680655E-3,-6.295815E-3,3.886654E-2,6.648779E-3,-3.9386336E-2,7.2570005E-3],"split_indices":[0,0,1,1,1,3,4,0,0,0,0,0,0,0,0],"split_type":[0,0,0,0,0,0,0,0,0,0,0,0,0,0,0],"sum_hessian":[2.3679229E3,2.1218232E3,2.4609973E2,2.8494238E2,1.8368809E3,6.31072E1,1.8299252E2,1.2579169E2,1.591507E2,1.393116E3,4.437649E2,2.953909E1,3.356811E1,1.4053734E2,4.2455196E1],"tree_param":{"num_deleted":"0","num_feature":"5","num_nodes":"15","size_leaf_vector":"1"}},{"base_weights":[-4.197785E-3,-2.630303E-1,4.051123E-1,-4.6600372E-1,6.34997E-2,1.13298E-1,7.567499E-1,-3.9139826E-2,-1.9354403E-2,-2.1622837E-2,2.267778E-2,2.5519561E-2,-9.764448E-3,3.290837E-2,6.443946E-2],"categories":[],"categories_nodes":[],"categories_segments":[],"categories_sizes":[],"default_left":[0,0,0,0,0,0,0,0,0,0,0,0,0,0,0],"id":24,"left_children":[1,3,5,7,9,11,13,-1,-1,-1,-1,-1,-1,-1,-1],"loss_changes":[1.892574E2,7.25605E1,7.0926895E1,1.1759216E1,4.0875965E1,2.414754E1,1.4295563E1,0E0,0E0,0E0,0E0,0E0,0E0,0E0,0E0],"parents":[2147483647,0,0,1,1,2,2,3,3,4,4,5,5,6,6],"right_children":[2,4,6,8,10,12,14,-1,-1,-1,-1,-1,-1,-1,-1],"split_conditions":[1.054E1,1.3E1,1.2E1,8.77E0,7.06E0,6.4E0,3E0,-3.9139826E-2,-1.9354403E-2,-2.1622837E-2,2.267778E-2,2.5519561E-2,-9.764448E-3,3.290837E-2,6.443946E-2],"split_indices":[0,1,1,0,0,4,3,0,0,0,0,0,0,0,0],"split_type":[0,0,0,0,0,0,0,0,0,0,0,0,0,0,0],"sum_hessian":[1.784406E3,1.0933619E3,6.910441E2,6.739824E2,4.1937952E2,3.7836868E2,3.1267545E2,4.5058835E2,2.2339404E2,1.7252747E2,2.4685205E2,1.8953418E2,1.8883449E2,1.1511853E2,1.975569E2],"tree_param":{"num_deleted":"0","num_feature":"5","num_nodes":"15","size_leaf_vector":"1"}},{"base_weights":[-2.8402857E-3,2.7140275E-1,-4.023517E-1,5.037264E-1,-2.1256998E-1,-3.376229E-2,-5.003855E-1,5.9947137E-2,1.7829508E-2,1.7169839E-2,-2.4706604E-2,3.9130796E-2,-2.520414E-2,-3.802385E-2,-2.1405794E-2],"categories":[],"categories_nodes":[],"categories_segments":[],"categories_sizes":[],"default_left":[0,0,0,0,0,0,0,0,0,0,0,0,0,0,0],"id":25,"left_children":[1,3,5,7,9,11,13,-1,-1,-1,-1,-1,-1,-1,-1],"loss_changes":[1.8220186E2,1.10981804E2,2.4442108E1,5.8318848E1,2.0688566E1,2.7914936E1,4.2876434E0,0E0,0E0,0E0,0E0,0E0,0E0,0E0,0E0],"parents":[2147483647,0,0,1,1,2,2,3,3,4,4,5,5,6,6],"right_children":[2,4,6,8,10,12,14,-1,-1,-1,-1,-1,-1,-1,-1],"split_conditions":[9.12E0,1.2E1,4E0,4E0,5.28E0,3E0,8.09E0,5.9947137E-2,1.7829508E-2,1.7169839E-2,-2.4706604E-2,3.9130796E-2,-2.520414E-2,-3.802385E-2,-2.1405794E-2],"split_indices":[0,1,1,2,0,2,4,0,0,0,0,0,0,0,0],"split_type":[0,0,0,0,0,0,0,0,0,0,0,0,0,0,0],"sum_hessian":[1.660987E3,9.850939E2,6.758931E2,6.6556085E2,3.1953305E2,1.4228215E2,5.3361096E2,2.7444806E2,3.911128E2,7.480613E1,2.4472693E2,5.0261112E1,9.202104E1,4.359122E2,9.769875E1],"tree_param":{"num_deleted":"0","num_feature":"5","num_nodes":"15","size_leaf_vector":"1"}},{"base_weights":[5.171146E-3,3.743005E-2,-1.6621682E-1,-1.4697751E-1,8.022091E-2,3.3550385E-1,-3.4034628E-1,-2.3283705E-2,2.1244273E-2,7.910016E-3,-4.340147E-3,3.223363E-2,5.944141E-3,-3.3410892E-2,7.6709148E-3],"categories":[],"categories_nodes":[],"categories_segments":[],"categories_sizes":[],"default_left":[0,0,0,0,0,0,0,0,0,0,0,0,0,0,0],"id":26,"left_children":[1,3,5,7,9,11,13,-1,-1,-1,-1,-1,-1,-1,-1],"loss_changes":[1.3066306E1,1.5705538E1,3.2820786E1,3.1455627E1,7.5356035E0,2.9973927E0,1.7207771E1,0E0,0E0,0E0,0E0,0E0,0E0,0E0,0E0],"parents":[2147483647,0,0,1,1,2,2,3,3,4,4,5,5,6,6],"right_children":[2,4,6,8,10,12,14,-1,-1,-1,-1,-1,-1,-1,-1],"split_conditions":[1.236E1,4E0,5E0,9.66E0,1.07E1,1.351E1,7.87E0,-2.3283705E-2,2.1244273E-2,7.910016E-3,-4.340147E-3,3.223363E-2,5.944141E-3,-3.3410892E-2,7.6709148E-3],"split_indices":[0,1,1,0,0,0,4,0,0,0,0,0,0,0,0],"split_type":[0,0,0,0,0,0,0,0,0,0,0,0,0,0,0],"sum_hessian":[2.3611965E3,1.9878265E3,3.7337012E2,3.7393137E2,1.6138951E3,9.59582E1,2.7741193E2,2.6498654E2,1.0894483E2,1.3117668E3,3.021283E2,6.346728E1,3.2490913E1,2.1262978E2,6.478216E1],"tree_param":{"num_deleted":"0","num_feature":"5","num_nodes":"15","size_leaf_vector":"1"}},{"base_weights":[-4.9160635E-3,-3.242938E-1,3.014648E-1,-5.116431E-1,-3.0942008E-2,-4.6998758E-2,5.959307E-1,-3.861606E-2,-2.2442356E-2,-2.2902807E-2,2.2550374E-2,-1.9269085E-2,1.630156E-2,2.3604436E-2,5.873106E-2],"categories":[],"categories_nodes":[],"categories_segments":[],"categories_sizes":[],"default_left":[0,0,0,0,0,0,0,0,0,0,0,0,0,0,0],"id":27,"left_children":[1,3,5,7,9,11,13,-1,-1,-1,-1,-1,-1,-1,-1],"loss_changes":[1.7358887E2,4.7720352E1,9.293528E1,3.8745728E0,3.562581E1,2.6617743E1,3.058525E1,0E0,0E0,0E0,0E0,0E0,0E0,0E0,0E0],"parents":[2147483647,0,0,1,1,2,2,3,3,4,4,5,5,6,6],"right_children":[2,4,6,8,10,12,14,-1,-1,-1,-1,-1,-1,-1,-1],"split_conditions":[9.43E0,1.3E1,1E1,8.77E0,6E0,6E0,5E0,-3.861606E-2,-2.2442356E-2,-2.2902807E-2,2.2550374E-2,-1.9269085E-2,1.630156E-2,2.3604436E-2,5.873106E-2],"split_indices":[0,1,1,0,2,2,2,0,0,0,0,0,0,0,0],"split_type":[0,0,0,0,0,0,0,0,0,0,0,0,0,0,0],"sum_hessian":[1.7720092E3,8.6757385E2,9.044353E2,5.289899E2,3.3858395E2,4.146222E2,4.8981314E2,4.3581595E2,9.317395E1,1.8415346E2,1.5443048E2,2.283732E2,1.8624898E2,2.384299E2,2.5138324E2],"tree_param":{"num_deleted":"0","num_feature":"5","num_nodes":"15","size_leaf_vector":"1"}},{"base_weights":[-3.301031E-3,4.9771246E-1,-2.0769991E-1,6.734271E-1,-1.7146905E-1,1.676577E-1,-3.9928803E-1,5.6369897E-2,7.4262507E-3,1.752766E-2,-2.6047854E-2,2.7572729E-2,-2.9801521E-2,-1.6818073E-2,-3.915331E-2],"categories":[],"categories_nodes":[],"categories_segments":[],"categories_sizes":[],"default_left":[0,0,0,0,0,0,0,0,0,0,0,0,0,0,0],"id":28,"left_children":[1,3,5,7,9,11,13,-1,-1,-1,-1,-1,-1,-1,-1],"loss_changes":[1.6925105E2,5.6426384E1,8.44819E1,2.8304138E1,8.590926E0,5.3514984E1,1.965332E1,0E0,0E0,0E0,0E0,0E0,0E0,0E0,0E0],"parents":[2147483647,0,0,1,1,2,2,3,3,4,4,5,5,6,6],"right_children":[2,4,6,8,10,12,14,-1,-1,-1,-1,-1,-1,-1,-1],"split_conditions":[6.56E0,1.5E1,6E0,8E0,3E0,1.125E1,5E0,5.6369897E-2,7.4262507E-3,1.752766E-2,-2.6047854E-2,2.7572729E-2,-2.9801521E-2,-1.6818073E-2,-3.915331E-2],"split_indices":[0,1,1,2,2,0,2,0,0,0,0,0,0,0,0],"split_type":[0,0,0,0,0,0,0,0,0,0,0,0,0,0,0],"sum_hessian":[1.6507264E3,4.778954E2,1.172831E3,3.7850156E2,9.939382E1,3.9637732E2,7.7645374E2,3.0678183E2,7.171974E1,3.1956148E1,6.743767E1,2.8721094E2,1.0916639E2,3.9071664E2,3.8573712E2],"tree_param":{"num_deleted":"0","num_feature":"5","num_nodes":"15","size_leaf_vector":"1"}},{"base_weights":[6.0141077E-3,3.0123973E-2,-2.0307525E-1,-1.09592326E-1,7.707883E-2,2.9457694E-1,-3.7766144E-1,-2.2215433E-2,1.6656807E-2,1.0236476E-2,-1.0036718E-2,3.6819108E-2,5.78218E-3,-3.6793392E-2,7.4506258E-3],"categories":[],"categories_nodes":[],"categories_segments":[],"categories_sizes":[],"default_left":[0,0,0,0,0,0,0,0,0,0,0,0,0,0,0],"id":29,"left_children":[1,3,5,7,9,11,13,-1,-1,-1,-1,-1,-1,-1,-1],"loss_changes":[1.1882486E1,1.3871802E1,2.1284657E1,3.848862E1,2.4144222E1,3.0887237E0,1.300938E1,0E0,0E0,0E0,0E0,0E0,0E0,0E0,0E0],"parents":[2147483647,0,0,1,1,2,2,3,3,4,4,5,5,6,6],"right_children":[2,4,6,8,10,12,14,-1,-1,-1,-1,-1,-1,-1,-1],"split_conditions":[1.292E1,6.41E0,5E0,1.2E1,1.5E1,4E0,7.85E0,-2.2215433E-2,1.6656807E-2,1.0236476E-2,-1.0036718E-2,3.6819108E-2,5.78218E-3,-3.6793392E-2,7.4506258E-3],"split_indices":[0,0,1,1,1,3,4,0,0,0,0,0,0,0,0],"split_type":[0,0,0,0,0,0,0,0,0,0,0,0,0,0,0],"sum_hessian":[2.3549006E3,2.112201E3,2.4269965E2,5.309629E2,1.581238E3,6.285273E1,1.7984692E2,3.3235855E2,1.9860434E2,1.2039166E3,3.7732147E2,2.934056E1,3.351217E1,1.3768083E2,4.2166092E1],"tree_param":{"num_deleted":"0","num_feature":"5","num_nodes":"15","size_leaf_vector":"1"}},{"base_weights":[-5.4204776E-3,-3.1676114E-1,2.8714398E-1,-5.0409174E-1,-3.0935919E-2,9.610111E-3,6.230872E-1,-3.815329E-2,-2.1785727E-2,-2.2373658E-2,2.137539E-2,-1.1440682E-2,2.5190093E-2,2.2351943E-2,5.6341335E-2],"categories":[],"categories_nodes":[],"categories_segments":[],"categories_sizes":[],"default_left":[0,0,0,0,0,0,0,0,0,0,0,0,0,0,0],"id":30,"left_children":[1,3,5,7,9,11,13,-1,-1,-1,-1,-1,-1,-1,-1],"loss_changes":[1.6033882E2,4.5644753E1,8.4606606E1,3.8989105E0,3.2979446E1,3.0241028E1,2.2414032E1,0E0,0E0,0E0,0E0,0E0,0E0,0E0,0E0],"parents":[2147483647,0,0,1,1,2,2,3,3,4,4,5,5,6,6],"right_children":[2,4,6,8,10,12,14,-1,-1,-1,-1,-1,-1,-1,-1],"split_conditions":[9.43E0,1.3E1,1.2E1,8.77E0,6E0,7E0,4E0,-3.815329E-2,-2.1785727E-2,-2.2373658E-2,2.137539E-2,-1.1440682E-2,2.5190093E-2,2.2351943E-2,5.6341335E-2],"split_indices":[0,1,1,0,2,2,2,0,0,0,0,0,0,0,0],"split_type":[0,0,0,0,0,0,0,0,0,0,0,0,0,0,0],"sum_hessian":[1.7582795E3,8.517661E2,9.065135E2,5.140758E2,3.3769028E2,4.9697473E2,4.0953873E2,4.2252652E2,9.1549286E1,1.8173428E2,1.55956E2,3.329877E2,1.6398705E2,1.5435849E2,2.5518024E2],"tree_param":{"num_deleted":"0","num_feature":"5","num_nodes":"15","size_leaf_vector":"1"}},{"base_weights":[-3.9160876E-3,2.2503914E-1,-4.2534217E-1,4.8331535E-1,-1.4764811E-1,-8.777031E-2,-5.156038E-1,5.6527637E-2,1.7688733E-2,1.2343554E-2,-2.62606E-2,4.1749984E-2,-2.3411075E-2,-2.6999336E-2,-3.9077826E-2],"categories":[],"categories_nodes":[],"categories_segments":[],"categories_sizes":[],"default_left":[0,0,0,0,0,0,0,0,0,0,0,0,0,0,0],"id":31,"left_children":[1,3,5,7,9,11,13,-1,-1,-1,-1,-1,-1,-1,-1],"loss_changes":[1.5847707E2,1.0251413E2,1.7572227E1,4.6817047E1,3.2232937E1,2.0990564E1,2.3111038E0,0E0,0E0,0E0,0E0,0E0,0E0,0E0,0E0],"parents":[2147483647,0,0,1,1,2,2,3,3,4,4,5,5,6,6],"right_children":[2,4,6,8,10,12,14,-1,-1,-1,-1,-1,-1,-1,-1],"split_conditions":[9.58E0,1E1,2E0,4E0,4E0,4E0,5E0,5.6527637E-2,1.7688733E-2,1.2343554E-2,-2.62606E-2,4.1749984E-2,-2.3411075E-2,-2.6999336E-2,-3.9077826E-2],"split_indices":[0,1,2,2,2,1,1,0,0,0,0,0,0,0,0],"split_type":[0,0,0,0,0,0,0,0,0,0,0,0,0,0,0],"sum_hessian":[1.6404667E3,1.0632714E3,5.771953E2,6.2786053E2,4.3541083E2,1.2218913E2,4.5500616E2,2.5992963E2,3.6793088E2,1.7971126E2,2.5569958E2,3.2003403E1,9.018573E1,1.1495097E2,3.4005518E2],"tree_param":{"num_deleted":"0","num_feature":"5","num_nodes":"15","size_leaf_vector":"1"}},{"base_weights":[6.797801E-3,3.6375344E-2,-1.517794E-1,-1.356896E-1,7.62279E-2,3.115016E-1,-3.142876E-1,-2.1823384E-2,2.0293063E-2,7.126989E-3,-5.406864E-3,3.0378893E-2,4.690012E-3,-3.180432E-2,5.9967316E-3],"categories":[],"categories_nodes":[],"categories_segments":[],"categories_sizes":[],"default_left":[0,0,0,0,0,0,0,0,0,0,0,0,0,0,0],"id":32,"left_children":[1,3,5,7,9,11,13,-1,-1,-1,-1,-1,-1,-1,-1],"loss_changes":[1.1020491E1,1.3588212E1,2.7906208E1,2.8020739E1,6.323368E0,2.858448E0,1.53846E1,0E0,0E0,0E0,0E0,0E0,0E0,0E0,0E0],"parents":[2147483647,0,0,1,1,2,2,3,3,4,4,5,5,6,6],"right_children":[2,4,6,8,10,12,14,-1,-1,-1,-1,-1,-1,-1,-1],"split_conditions":[1.236E1,4E0,5E0,9.66E0,1.105E1,1.351E1,7.71E0,-2.1823384E-2,2.0293063E-2,7.126989E-3,-5.406864E-3,3.0378893E-2,4.690012E-3,-3.180432E-2,5.9967316E-3],"split_indices":[0,1,1,0,0,0,4,0,0,0,0,0,0,0,0],"split_type":[0,0,0,0,0,0,0,0,0,0,0,0,0,0,0],"sum_hessian":[2.3474456E3,1.9790813E3,3.683642E2,3.7172778E2,1.6073535E3,9.542064E1,2.7294354E2,2.6313318E2,1.085946E2,1.3779578E3,2.293957E2,6.3057243E1,3.23634E1,2.020514E2,7.089213E1],"tree_param":{"num_deleted":"0","num_feature":"5","num_nodes":"15","size_leaf_vector":"1"}},{"base_weights":[-6.1201015E-3,-2.4358533E-1,3.4987772E-1,-4.6111074E-1,3.0145554E-2,1.7239304E-1,7.974476E-1,-3.7647355E-2,-1.9947888E-2,-2.2713613E-2,1.8682951E-2,-1.057091E-2,2.512168E-2,3.9672706E-2,6.4432934E-2],"categories":[],"categories_nodes":[],"categories_segments":[],"categories_sizes":[],"default_left":[0,0,0,0,0,0,0,0,0,0,0,0,0,0,0],"id":33,"left_children":[1,3,5,7,9,11,13,-1,-1,-1,-1,-1,-1,-1,-1],"loss_changes":[1.4758241E2,6.236849E1,5.5353157E1,7.73172E0,3.909713E1,3.0298704E1,5.09993E0,0E0,0E0,0E0,0E0,0E0,0E0,0E0,0E0],"parents":[2147483647,0,0,1,1,2,2,3,3,4,4,5,5,6,6],"right_children":[2,4,6,8,10,12,14,-1,-1,-1,-1,-1,-1,-1,-1],"split_conditions":[1.054E1,1.2E1,1.5E1,7E0,7.06E0,4E0,3E0,-3.7647355E-2,-1.9947888E-2,-2.2713613E-2,1.8682951E-2,-1.057091E-2,2.512168E-2,3.9672706E-2,6.4432934E-2],"split_indices":[0,1,1,2,0,2,3,0,0,0,0,0,0,0,0],"split_type":[0,0,0,0,0,0,0,0,0,0,0,0,0,0,0],"sum_hessian":[1.7437628E3,1.046212E3,6.975508E2,5.8257404E2,4.6363797E2,5.0047263E2,1.9707819E2,4.044043E2,1.7816971E2,1.8546516E2,2.781728E2,1.8311186E2,3.1736075E2,7.0493805E1,1.2658437E2],"tree_param":{"num_deleted":"0","num_feature":"5","num_nodes":"15","size_leaf_vector":"1"}},{"base_weights":[-4.4667954E-3,3.0011147E-1,-3.0055898E-1,4.473765E-1,-2.952593E-1,2.2434147E-2,-4.684695E-1,5.2908834E-2,1.5161401E-2,-4.6095526E-4,-3.169996E-2,1.929191E-2,-2.9215768E-2,-3.674543E-2,-1.5903588E-2],"categories":[],"categories_nodes":[],"categories_segments":[],"categories_sizes":[],"default_left":[0,0,0,0,0,0,0,0,0,0,0,0,0,0,0],"id":34,"left_children":[1,3,5,7,9,11,13,-1,-1,-1,-1,-1,-1,-1,-1],"loss_changes":[1.4705229E2,7.060589E1,4.4851562E1,4.5738373E1,7.2758102E0,3.170939E1,7.2926865E0,0E0,0E0,0E0,0E0,0E0,0E0,0E0,0E0],"parents":[2147483647,0,0,1,1,2,2,3,3,4,4,5,5,6,6],"right_children":[2,4,6,8,10,12,14,-1,-1,-1,-1,-1,-1,-1,-1],"split_conditions":[8.17E0,1.5E1,6E0,4E0,3E0,1.129E1,8.09E0,5.2908834E-2,1.5161401E-2,-4.6095526E-4,-3.169996E-2,1.929191E-2,-2.9215768E-2,-3.674543E-2,-1.5903588E-2],"split_indices":[0,1,1,2,3,0,4,0,0,0,0,0,0,0,0],"split_type":[0,0,0,0,0,0,0,0,0,0,0,0,0,0,0],"sum_hessian":[1.6285942E3,8.0278625E2,8.258079E2,6.4379266E2,1.589936E2,2.8275876E2,5.4304913E2,2.7455344E2,3.6923923E2,5.651524E1,1.0247836E2,1.7969424E2,1.0306452E2,4.3910956E2,1.03939575E2],"tree_param":{"num_deleted":"0","num_feature":"5","num_nodes":"15","size_leaf_vector":"1"}},{"base_weights":[7.6711946E-3,3.0004695E-2,-1.8827233E-1,-1.6588043E-1,6.028727E-2,1.3999988E-1,-4.1687527E-1,-2.4083942E-2,2.5888063E-2,7.2730877E-3,-5.365936E-3,2.1153837E-2,-4.433478E-3,-3.6209688E-2,1.1390048E-2],"categories":[],"categories_nodes":[],"categories_segments":[],"categories_sizes":[],"default_left":[0,0,0,0,0,0,0,0,0,0,0,0,0,0,0],"id":35,"left_children":[1,3,5,7,9,11,13,-1,-1,-1,-1,-1,-1,-1,-1],"loss_changes":[1.0249499E1,1.2480126E1,1.804249E1,2.7019577E1,1.0886979E1,3.2883835E0,8.319904E0,0E0,0E0,0E0,0E0,0E0,0E0,0E0,0E0],"parents":[2147483647,0,0,1,1,2,2,3,3,4,4,5,5,6,6],"right_children":[2,4,6,8,10,12,14,-1,-1,-1,-1,-1,-1,-1,-1],"split_conditions":[1.292E1,5.28E0,8E0,1.5E1,1.5E1,6E0,8.23E0,-2.4083942E-2,2.5888063E-2,7.2730877E-3,-5.365936E-3,2.1153837E-2,-4.433478E-3,-3.6209688E-2,1.1390048E-2],"split_indices":[0,0,1,1,1,2,4,0,0,0,0,0,0,0,0],"split_type":[0,0,0,0,0,0,0,0,0,0,0,0,0,0,0],"sum_hessian":[2.3398604E3,2.1012124E3,2.386478E2,2.8074094E2,1.8204716E3,9.812647E1,1.4052133E2,2.109404E2,6.980054E1,1.3809164E3,4.3955515E2,5.4314407E1,4.381206E1,1.1986406E2,2.0657276E1],"tree_param":{"num_deleted":"0","num_feature":"5","num_nodes":"15","size_leaf_vector":"1"}},{"base_weights":[-6.8384954E-3,-3.018633E-1,2.5997576E-1,-4.8979926E-1,-2.9580794E-2,-9.500527E-2,4.8678058E-1,-1.9675277E-2,-3.719987E-2,-2.1778379E-2,2.0352287E-2,-2.1366818E-2,1.3708494E-2,1.2185412E-2,4.7321696E-2],"categories":[],"categories_nodes":[],"categories_segments":[],"categories_sizes":[],"default_left":[0,0,0,0,0,0,0,0,0,0,0,0,0,0,0],"id":36,"left_children":[1,3,5,7,9,11,13,-1,-1,-1,-1,-1,-1,-1,-1],"loss_changes":[1.3634695E2,4.2077446E1,7.327617E1,4.0784836E0,3.0479849E1,2.1792002E1,3.2733765E1,0E0,0E0,0E0,0E0,0E0,0E0,0E0,0E0],"parents":[2147483647,0,0,1,1,2,2,3,3,4,4,5,5,6,6],"right_children":[2,4,6,8,10,12,14,-1,-1,-1,-1,-1,-1,-1,-1],"split_conditions":[9.43E0,1.3E1,9E0,4.95E0,6E0,1.225E1,3E0,-1.9675277E-2,-3.719987E-2,-2.1778379E-2,2.0352287E-2,-2.1366818E-2,1.3708494E-2,1.2185412E-2,4.7321696E-2],"split_indices":[0,1,1,4,2,0,3,0,0,0,0,0,0,0,0],"split_type":[0,0,0,0,0,0,0,0,0,0,0,0,0,0,0],"sum_hessian":[1.7301227E3,8.2156323E2,9.085594E2,4.85595E2,3.3596826E2,3.544216E2,5.541378E2,8.203187E1,4.035631E2,1.7882559E2,1.5714265E2,2.0568921E2,1.487324E2,2.0964441E2,3.4449338E2],"tree_param":{"num_deleted":"0","num_feature":"5","num_nodes":"15","size_leaf_vector":"1"}},{"base_weights":[-4.7912956E-3,2.0376956E-1,-4.102473E-1,5.1020384E-1,-6.40032E-2,-7.275787E-2,-5.035068E-1,5.026222E-2,9.887802E-3,1.4979997E-2,-2.1654513E-2,4.0755227E-2,-2.237571E-2,-2.600308E-2,-3.836475E-2],"categories":[],"categories_nodes":[],"categories_segments":[],"categories_sizes":[],"default_left":[0,0,0,0,0,0,0,0,0,0,0,0,0,0,0],"id":37,"left_children":[1,3,5,7,9,11,13,-1,-1,-1,-1,-1,-1,-1,-1],"loss_changes":[1.3693051E2,8.777255E1,1.7274529E1,3.8142212E1,3.904858E1,1.9631725E1,2.330841E0,0E0,0E0,0E0,0E0,0E0,0E0,0E0,0E0],"parents":[2147483647,0,0,1,1,2,2,3,3,4,4,5,5,6,6],"right_children":[2,4,6,8,10,12,14,-1,-1,-1,-1,-1,-1,-1,-1],"split_conditions":[9.58E0,8E0,2E0,6E0,6.56E0,4E0,5E0,5.026222E-2,9.887802E-3,1.4979997E-2,-2.1654513E-2,4.0755227E-2,-2.237571E-2,-2.600308E-2,-3.836475E-2],"split_indices":[0,1,2,2,0,1,1,0,0,0,0,0,0,0,0],"split_type":[0,0,0,0,0,0,0,0,0,0,0,0,0,0,0],"sum_hessian":[1.6172979E3,1.0682847E3,5.490132E2,4.9775623E2,5.705285E2,1.1924978E2,4.2976343E2,3.177965E2,1.799597E2,2.6752414E2,3.0300436E2,3.2273888E1,8.697589E1,1.10799934E2,3.189635E2],"tree_param":{"num_deleted":"0","num_feature":"5","num_nodes":"15","size_leaf_vector":"1"}},{"base_weights":[8.396264E-3,3.8833484E-2,-1.24493115E-1,-1.461373E-1,8.176021E-2,1.3324131E-1,-4.0568218E-1,-3.284511E-2,5.02905E-3,-5.152905E-3,7.439342E-3,2.1638567E-2,-8.126971E-3,-1.1491703E-2,-3.9566092E-2],"categories":[],"categories_nodes":[],"categories_segments":[],"categories_sizes":[],"default_left":[0,0,0,0,0,0,0,0,0,0,0,0,0,0,0],"id":38,"left_children":[1,3,5,7,9,11,13,-1,-1,-1,-1,-1,-1,-1,-1],"loss_changes":[9.44302E0,1.5093009E1,3.1585915E1,2.5254053E1,5.8823433E0,1.0024391E1,7.934601E0,0E0,0E0,0E0,0E0,0E0,0E0,0E0,0E0],"parents":[2147483647,0,0,1,1,2,2,3,3,4,4,5,5,6,6],"right_children":[2,4,6,8,10,12,14,-1,-1,-1,-1,-1,-1,-1,-1],"split_conditions":[1.204E1,4E0,1E1,4E0,5.17E0,6E0,4E0,-3.284511E-2,5.02905E-3,-5.152905E-3,7.439342E-3,2.1638567E-2,-8.126971E-3,-1.1491703E-2,-3.9566092E-2],"split_indices":[0,1,1,2,0,2,2,0,0,0,0,0,0,0,0],"split_type":[0,0,0,0,0,0,0,0,0,0,0,0,0,0,0],"sum_hessian":[2.332422E3,1.8983324E3,4.3408966E2,3.5711667E2,1.5412158E3,2.2676541E2,2.0732423E2,1.4341006E2,2.1370659E2,2.097707E2,1.3314451E3,1.3282971E2,9.393571E1,8.32833E1,1.2404094E2],"tree_param":{"num_deleted":"0","num_feature":"5","num_nodes":"15","size_leaf_vector":"1"}},{"base_weights":[-7.4967872E-3,-2.937727E-1,2.4611418E-1,-4.8229012E-1,-2.7693303E-2,-9.2869096E-2,4.6092024E-1,-3.689013E-2,-1.9471614E-2,-2.1234626E-2,1.9595798E-2,9.872034E-3,-2.4432965E-2,1.5140323E-2,4.8377063E-2],"categories":[],"categories_nodes":[],"categories_segments":[],"categories_sizes":[],"default_left":[0,0,0,0,0,0,0,0,0,0,0,0,0,0,0],"id":39,"left_children":[1,3,5,7,9,11,13,-1,-1,-1,-1,-1,-1,-1,-1],"loss_changes":[1.2469682E2,4.0455803E1,6.6358604E1,4.162697E0,2.854697E1,2.1265875E1,3.1250916E1,0E0,0E0,0E0,0E0,0E0,0E0,0E0,0E0],"parents":[2147483647,0,0,1,1,2,2,3,3,4,4,5,5,6,6],"right_children":[2,4,6,8,10,12,14,-1,-1,-1,-1,-1,-1,-1,-1],"split_conditions":[9.43E0,1.3E1,9E0,8.77E0,6E0,6.48E0,5E0,-3.689013E-2,-1.9471614E-2,-2.1234626E-2,1.9595798E-2,9.872034E-3,-2.4432965E-2,1.5140323E-2,4.8377063E-2],"split_indices":[0,1,1,0,2,4,2,0,0,0,0,0,0,0,0],"split_type":[0,0,0,0,0,0,0,0,0,0,0,0,0,0,0],"sum_hessian":[1.7155272E3,8.057917E2,9.0973553E2,4.7116113E2,3.3463055E2,3.530921E2,5.5664343E2,3.8520367E2,8.595744E1,1.7649448E2,1.5813608E2,1.8480551E2,1.6828659E2,2.7079224E2,2.8585117E2],"tree_param":{"num_deleted":"0","num_feature":"5","num_nodes":"15","size_leaf_vector":"1"}},{"base_weights":[-5.280602E-3,1.9357125E-1,-4.0268245E-1,4.1716996E-1,-1.407836E-1,-6.8030424E-2,-4.970607E-1,4.223685E-2,6.538062E-3,-2.6131531E-2,1.189852E-2,3.816713E-2,-2.1698646E-2,-2.552913E-2,-3.797768E-2],"categories":[],"categories_nodes":[],"categories_segments":[],"categories_sizes":[],"default_left":[0,0,0,0,0,0,0,0,0,0,0,0,0,0,0],"id":40,"left_children":[1,3,5,7,9,11,13,-1,-1,-1,-1,-1,-1,-1,-1],"loss_changes":[1.2695131E2,8.0108604E1,1.6887642E1,3.864364E1,3.1123875E1,1.7828836E1,2.3167114E0,0E0,0E0,0E0,0E0,0E0,0E0,0E0,0E0],"parents":[2147483647,0,0,1,1,2,2,3,3,4,4,5,5,6,6],"right_children":[2,4,6,8,10,12,14,-1,-1,-1,-1,-1,-1,-1,-1],"split_conditions":[9.58E0,1E1,2E0,6E0,6.91E0,4E0,5E0,4.223685E-2,6.538062E-3,-2.6131531E-2,1.189852E-2,3.816713E-2,-2.1698646E-2,-2.552913E-2,-3.797768E-2],"split_indices":[0,1,2,2,4,1,1,0,0,0,0,0,0,0,0],"split_type":[0,0,0,0,0,0,0,0,0,0,0,0,0,0,0],"sum_hessian":[1.6045022E3,1.0697393E3,5.3476294E2,6.408951E2,4.2884418E2,1.1801588E2,4.1674707E2,4.063322E2,2.3456285E2,2.451858E2,1.8365837E2,3.3033016E1,8.498286E1,1.0888008E2,3.07867E2],"tree_param":{"num_deleted":"0","num_feature":"5","num_nodes":"15","size_leaf_vector":"1"}},{"base_weights":[9.18177E-3,2.9539883E-2,-1.718882E-1,-1.534178E-1,5.7769105E-2,2.6136264E-1,-3.2845584E-1,-2.2589749E-2,2.473079E-2,6.1430796E-3,-8.617323E-3,3.4126434E-2,3.9561163E-3,-3.308702E-2,9.041507E-3],"categories":[],"categories_nodes":[],"categories_segments":[],"categories_sizes":[],"default_left":[0,0,0,0,0,0,0,0,0,0,0,0,0,0,0],"id":41,"left_children":[1,3,5,7,9,11,13,-1,-1,-1,-1,-1,-1,-1,-1],"loss_changes":[8.575128E0,1.0807093E1,1.603469E1,2.4111305E1,9.839612E0,2.8896723E0,1.1488258E1,0E0,0E0,0E0,0E0,0E0,0E0,0E0,0E0],"parents":[2147483647,0,0,1,1,2,2,3,3,4,4,5,5,6,6],"right_children":[2,4,6,8,10,12,14,-1,-1,-1,-1,-1,-1,-1,-1],"split_conditions":[1.292E1,5.28E0,5E0,1.5E1,1.7E1,4E0,7.85E0,-2.2589749E-2,2.473079E-2,6.1430796E-3,-8.617323E-3,3.4126434E-2,3.9561163E-3,-3.308702E-2,9.041507E-3],"split_indices":[0,0,1,1,1,3,4,0,0,0,0,0,0,0,0],"split_type":[0,0,0,0,0,0,0,0,0,0,0,0,0,0,0],"sum_hessian":[2.3238738E3,2.0897546E3,2.3411906E2,2.7874344E2,1.8110112E3,6.1969353E1,1.721497E2,2.0920978E2,6.9533646E1,1.5538887E3,2.5712262E2,2.8796778E1,3.3172577E1,1.3087306E2,4.127664E1],"tree_param":{"num_deleted":"0","num_feature":"5","num_nodes":"15","size_leaf_vector":"1"}},{"base_weights":[-8.15872E-3,-2.2584006E-1,3.0386794E-1,-4.394423E-1,2.4051555E-2,1.429251E-1,7.1405107E-1,-3.6469124E-2,-1.8070286E-2,-2.1900814E-2,1.6865138E-2,-1.1129801E-2,2.2102261E-2,5.6243476E-2,2.9520674E-2],"categories":[],"categories_nodes":[],"categories_segments":[],"categories_sizes":[],"default_left":[0,0,0,0,0,0,0,0,0,0,0,0,0,0,0],"id":42,"left_children":[1,3,5,7,9,11,13,-1,-1,-1,-1,-1,-1,-1,-1],"loss_changes":[1.1567665E2,5.35577E1,4.610132E1,7.8622513E0,3.3926643E1,2.6343319E1,4.8105087E0,0E0,0E0,0E0,0E0,0E0,0E0,0E0,0E0],"parents":[2147483647,0,0,1,1,2,2,3,3,4,4,5,5,6,6],"right_children":[2,4,6,8,10,12,14,-1,-1,-1,-1,-1,-1,-1,-1],"split_conditions":[1.054E1,1.2E1,1.5E1,7E0,7.06E0,4E0,7.69E0,-3.6469124E-2,-1.8070286E-2,-2.1900814E-2,1.6865138E-2,-1.1129801E-2,2.2102261E-2,5.6243476E-2,2.9520674E-2],"split_indices":[0,1,1,2,0,2,4,0,0,0,0,0,0,0,0],"split_type":[0,0,0,0,0,0,0,0,0,0,0,0,0,0,0],"sum_hessian":[1.7010608E3,1.0021795E3,6.988813E2,5.399137E2,4.6226578E2,5.0290558E2,1.9597574E2,3.7111536E2,1.6879836E2,1.8085928E2,2.814065E2,1.8310239E2,3.198032E2,1.4872882E2,4.7246906E1],"tree_param":{"num_deleted":"0","num_feature":"5","num_nodes":"15","size_leaf_vector":"1"}},{"base_weights":[-5.8122682E-3,4.064496E-1,-1.8887638E-1,5.412906E-1,-1.4783345E-1,1.3789761E-1,-3.7142563E-1,1.0762266E-2,4.8118636E-2,1.7189058E-2,-2.4274116E-2,2.2159446E-2,-2.7521886E-2,-1.5082661E-2,-3.771159E-2],"categories":[],"categories_nodes":[],"categories_segments":[],"categories_sizes":[],"default_left":[0,0,0,0,0,0,0,0,0,0,0,0,0,0,0],"id":43,"left_children":[1,3,5,7,9,11,13,-1,-1,-1,-1,-1,-1,-1,-1],"loss_changes":[1.20320015E2,3.6721024E1,6.5907745E1,2.2235733E1,7.6539383E0,3.7738407E1,1.837352E1,0E0,0E0,0E0,0E0,0E0,0E0,0E0,0E0],"parents":[2147483647,0,0,1,1,2,2,3,3,4,4,5,5,6,6],"right_children":[2,4,6,8,10,12,14,-1,-1,-1,-1,-1,-1,-1,-1],"split_conditions":[6.56E0,1.5E1,6E0,5.54E0,3E0,1.125E1,5E0,1.0762266E-2,4.8118636E-2,1.7189058E-2,-2.4274116E-2,2.2159446E-2,-2.7521886E-2,-1.5082661E-2,-3.771159E-2],"split_indices":[0,1,1,4,2,0,2,0,0,0,0,0,0,0,0],"split_type":[0,0,0,0,0,0,0,0,0,0,0,0,0,0,0],"sum_hessian":[1.5922515E3,4.892458E2,1.1030057E3,3.9353387E2,9.571193E1,3.954218E2,7.075839E2,1.0831277E2,2.852211E2,3.2066994E1,6.3644936E1,2.9618185E2,9.9239944E1,3.674002E2,3.4018372E2],"tree_param":{"num_deleted":"0","num_feature":"5","num_nodes":"15","size_leaf_vector":"1"}},{"base_weights":[9.988402E-3,3.7980314E-2,-1.13451496E-1,-1.3604237E-1,7.8221425E-2,8.649574E-2,-4.3140355E-1,-3.8693804E-2,8.6730235E-4,-4.608566E-3,7.0657935E-3,1.7570687E-2,-1.06234355E-2,-1.0505686E-2,-3.9057285E-2],"categories":[],"categories_nodes":[],"categories_segments":[],"categories_sizes":[],"default_left":[0,0,0,0,0,0,0,0,0,0,0,0,0,0,0],"id":44,"left_children":[1,3,5,7,9,11,13,-1,-1,-1,-1,-1,-1,-1,-1],"loss_changes":[8.011634E0,1.3244479E1,2.7286028E1,2.1983284E1,5.0319633E0,1.0385E1,5.8137856E0,0E0,0E0,0E0,0E0,0E0,0E0,0E0,0E0],"parents":[2147483647,0,0,1,1,2,2,3,3,4,4,5,5,6,6],"right_children":[2,4,6,8,10,12,14,-1,-1,-1,-1,-1,-1,-1,-1],"split_conditions":[1.204E1,4E0,1.2E1,6.47E0,5.17E0,6E0,3E0,-3.8693804E-2,8.6730235E-4,-4.608566E-3,7.0657935E-3,1.7570687E-2,-1.06234355E-2,-1.0505686E-2,-3.9057285E-2],"split_indices":[0,1,1,0,0,2,2,0,0,0,0,0,0,0,0],"split_type":[0,0,0,0,0,0,0,0,0,0,0,0,0,0,0],"sum_hessian":[2.3163909E3,1.8887744E3,4.2761655E2,3.542856E2,1.5344888E3,2.6297202E2,1.6464455E2,9.233359E1,2.6195203E2,2.0877121E2,1.3257177E3,1.5552853E2,1.07443474E2,5.1764412E1,1.12880135E2],"tree_param":{"num_deleted":"0","num_feature":"5","num_nodes":"15","size_leaf_vector":"1"}},{"base_weights":[-8.581227E-3,-3.2652175E-1,1.9220951E-1,-5.1447093E-1,-8.4167436E-2,-1.3156451E-1,3.998058E-1,-2.0109922E-2,-3.869219E-2,-3.1024665E-2,1.0465643E-2,-2.209542E-2,1.2751988E-2,1.107903E-2,4.3609276E-2],"categories":[],"categories_nodes":[],"categories_segments":[],"categories_sizes":[],"default_left":[0,0,0,0,0,0,0,0,0,0,0,0,0,0,0],"id":45,"left_children":[1,3,5,7,9,11,13,-1,-1,-1,-1,-1,-1,-1,-1],"loss_changes":[1.07746346E2,2.9714363E1,6.958534E1,3.038971E0,2.4107101E1,2.3442575E1,3.3893967E1,0E0,0E0,0E0,0E0,0E0,0E0,0E0,0E0],"parents":[2147483647,0,0,1,1,2,2,3,3,4,4,5,5,6,6],"right_children":[2,4,6,8,10,12,14,-1,-1,-1,-1,-1,-1,-1,-1],"split_conditions":[8.82E0,1.3E1,9E0,4.81E0,5E0,1.225E1,5E0,-2.0109922E-2,-3.869219E-2,-3.1024665E-2,1.0465643E-2,-2.209542E-2,1.2751988E-2,1.107903E-2,4.3609276E-2],"split_indices":[0,1,1,4,2,0,2,0,0,0,0,0,0,0,0],"split_type":[0,0,0,0,0,0,0,0,0,0,0,0,0,0,0],"sum_hessian":[1.6857859E3,6.522924E2,1.0334935E3,3.667499E2,2.8554248E2,4.039094E2,6.2958417E2,5.4105038E1,3.1264487E2,1.1222031E2,1.7332217E2,2.5454759E2,1.493618E2,3.0318286E2,3.2640128E2],"tree_param":{"num_deleted":"0","num_feature":"5","num_nodes":"15","size_leaf_vector":"1"}},{"base_weights":[-6.2044878E-3,1.7681402E-1,-3.8938254E-1,3.158746E-1,-2.862259E-1,-5.7515513E-2,-4.8640063E-1,4.4028793E-2,6.3853515E-3,1.17762E-2,-2.8414892E-2,3.2615803E-2,-2.2795707E-2,-2.4814222E-2,-3.7337925E-2],"categories":[],"categories_nodes":[],"categories_segments":[],"categories_sizes":[],"default_left":[0,0,0,0,0,0,0,0,0,0,0,0,0,0,0],"id":46,"left_children":[1,3,5,7,9,11,13,-1,-1,-1,-1,-1,-1,-1,-1],"loss_changes":[1.1095639E2,6.903846E1,1.6438362E1,5.7900253E1,1.3550043E1,1.6548786E1,2.2634888E0,0E0,0E0,0E0,0E0,0E0,0E0,0E0,0E0],"parents":[2147483647,0,0,1,1,2,2,3,3,4,4,5,5,6,6],"right_children":[2,4,6,8,10,12,14,-1,-1,-1,-1,-1,-1,-1,-1],"split_conditions":[9.58E0,1.4E1,2E0,4E0,5.17E0,5E0,5E0,4.4028793E-2,6.3853515E-3,1.17762E-2,-2.8414892E-2,3.2615803E-2,-2.2795707E-2,-2.4814222E-2,-3.7337925E-2],"split_indices":[0,1,2,2,0,1,1,0,0,0,0,0,0,0,0],"split_type":[0,0,0,0,0,0,0,0,0,0,0,0,0,0,0],"sum_hessian":[1.5802012E3,1.0697782E3,5.1042288E2,8.2294763E2,2.4683061E2,1.1582305E2,3.9459982E2,3.430416E2,4.79906E2,5.137498E1,1.9545563E2,3.8983032E1,7.684002E1,1.0590241E2,2.8869742E2],"tree_param":{"num_deleted":"0","num_feature":"5","num_nodes":"15","size_leaf_vector":"1"}},{"base_weights":[1.0522451E-2,2.9366788E-2,-1.5947005E-1,-1.10071465E-1,6.0981624E-2,2.4620238E-1,-3.0860272E-1,-1.7821746E-2,2.1959214E-2,7.5689848E-3,-6.1856234E-3,3.2305937E-2,2.6927472E-3,-3.1582832E-2,9.53575E-3],"categories":[],"categories_nodes":[],"categories_segments":[],"categories_sizes":[],"default_left":[0,0,0,0,0,0,0,0,0,0,0,0,0,0,0],"id":47,"left_children":[1,3,5,7,9,11,13,-1,-1,-1,-1,-1,-1,-1,-1],"loss_changes":[7.397946E0,9.169295E0,1.4019135E1,2.3629576E1,1.1944241E1,2.7780209E0,1.07776985E1,0E0,0E0,0E0,0E0,0E0,0E0,0E0,0E0],"parents":[2147483647,0,0,1,1,2,2,3,3,4,4,5,5,6,6],"right_children":[2,4,6,8,10,12,14,-1,-1,-1,-1,-1,-1,-1,-1],"split_conditions":[1.292E1,5.77E0,5E0,1.5E1,1.5E1,1.351E1,7.85E0,-1.7821746E-2,2.1959214E-2,7.5689848E-3,-6.1856234E-3,3.2305937E-2,2.6927472E-3,-3.1582832E-2,9.53575E-3],"split_indices":[0,0,1,1,1,0,4,0,0,0,0,0,0,0,0],"split_type":[0,0,0,0,0,0,0,0,0,0,0,0,0,0,0],"sum_hessian":[2.3069456E3,2.0774763E3,2.2946916E2,3.8351025E2,1.6939661E3,6.1506783E1,1.6796239E2,2.86277E2,9.723327E1,1.2877268E3,4.062393E2,2.9602734E1,3.1904049E1,1.2718234E2,4.078004E1],"tree_param":{"num_deleted":"0","num_feature":"5","num_nodes":"15","size_leaf_vector":"1"}},{"base_weights":[-9.324782E-3,-3.196158E-1,1.8308844E-1,-5.087423E-1,-8.255496E-2,-1.2724222E-1,3.8028547E-1,-1.9546466E-2,-3.8360503E-2,-3.0549318E-2,1.0000443E-2,7.1383864E-3,-2.5471821E-2,1.0362881E-2,4.16823E-2],"categories":[],"categories_nodes":[],"categories_segments":[],"categories_sizes":[],"default_left":[0,0,0,0,0,0,0,0,0,0,0,0,0,0,0],"id":48,"left_children":[1,3,5,7,9,11,13,-1,-1,-1,-1,-1,-1,-1,-1],"loss_changes":[9.988943E1,2.8668625E1,6.324737E1,3.0551224E0,2.2825283E1,2.1843145E1,3.1480896E1,0E0,0E0,0E0,0E0,0E0,0E0,0E0,0E0],"parents":[2147483647,0,0,1,1,2,2,3,3,4,4,5,5,6,6],"right_children":[2,4,6,8,10,12,14,-1,-1,-1,-1,-1,-1,-1,-1],"split_conditions":[8.82E0,1.3E1,9E0,4.81E0,5E0,6.4E0,5E0,-1.9546466E-2,-3.8360503E-2,-3.0549318E-2,1.0000443E-2,7.1383864E-3,-2.5471821E-2,1.0362881E-2,4.16823E-2],"split_indices":[0,1,1,4,2,4,2,0,0,0,0,0,0,0,0],"split_type":[0,0,0,0,0,0,0,0,0,0,0,0,0,0,0],"sum_hessian":[1.671095E3,6.393691E2,1.031726E3,3.550028E2,2.8436624E2,4.0100912E2,6.307168E2,5.3047394E1,3.019554E2,1.1029232E2,1.7407393E2,2.0398793E2,1.970212E2,3.041398E2,3.2657697E2],"tree_param":{"num_deleted":"0","num_feature":"5","num_nodes":"15","size_leaf_vector":"1"}},{"base_weights":[-6.7508044E-3,1.6780612E-1,-3.820362E-1,4.2887005E-1,-6.598211E-2,-5.4597657E-2,-4.8013765E-1,4.3013625E-2,7.173388E-3,-2.0029623E-2,1.5811725E-2,3.5449903E-2,-2.040503E-2,-3.76665E-2,-2.5677377E-2],"categories":[],"categories_nodes":[],"categories_segments":[],"categories_sizes":[],"default_left":[0,0,0,0,0,0,0,0,0,0,0,0,0,0,0],"id":49,"left_children":[1,3,5,7,9,11,13,-1,-1,-1,-1,-1,-1,-1,-1],"loss_changes":[1.0284163E2,6.542775E1,1.5982979E1,3.0613762E1,3.644365E1,1.5568022E1,2.3202972E0,0E0,0E0,0E0,0E0,0E0,0E0,0E0,0E0],"parents":[2147483647,0,0,1,1,2,2,3,3,4,4,5,5,6,6],"right_children":[2,4,6,8,10,12,14,-1,-1,-1,-1,-1,-1,-1,-1],"split_conditions":[9.58E0,8E0,2E0,6E0,6.93E0,4E0,7.13E0,4.3013625E-2,7.173388E-3,-2.0029623E-2,1.5811725E-2,3.5449903E-2,-2.040503E-2,-3.76665E-2,-2.5677377E-2],"split_indices":[0,1,2,2,4,1,4,0,0,0,0,0,0,0,0],"split_type":[0,0,0,0,0,0,0,0,0,0,0,0,0,0,0],"sum_hessian":[1.5679149E3,1.0705306E3,4.9738425E2,5.0536786E2,5.6516284E2,1.15022804E2,3.8236145E2,3.2160037E2,1.8376749E2,3.2216827E2,2.4299455E2,3.3812214E1,8.1210594E1,2.5049835E2,1.3186308E2],"tree_param":{"num_deleted":"0","num_feature":"5","num_nodes":"15","size_leaf_vector":"1"}},{"base_weights":[1.13806315E-2,2.9254563E-2,-1.5083833E-1,-8.141708E-2,6.620153E-2,2.4034417E-1,-2.9593047E-1,-3.2482907E-2,3.6301843E-3,8.544838E-3,-7.901146E-3,3.2303367E-2,2.9371209E-3,-3.051214E-2,9.501946E-3],"categories":[],"categories_nodes":[],"categories_segments":[],"categories_sizes":[],"default_left":[0,0,0,0,0,0,0,0,0,0,0,0,0,0,0],"id":50,"left_children":[1,3,5,7,9,11,13,-1,-1,-1,-1,-1,-1,-1,-1],"loss_changes":[6.6752553E0,8.482633E0,1.3040367E1,2.6507837E1,1.5569274E1,2.7169726E0,1.0156334E1,0E0,0E0,0E0,0E0,0E0,0E0,0E0,0E0],"parents":[2147483647,0,0,1,1,2,2,3,3,4,4,5,5,6,6],"right_children":[2,4,6,8,10,12,14,-1,-1,-1,-1,-1,-1,-1,-1],"split_conditions":[1.292E1,6.41E0,5E0,6E0,1.5E1,4E0,7.85E0,-3.2482907E-2,3.6301843E-3,8.544838E-3,-7.901146E-3,3.2303367E-2,2.9371209E-3,-3.051214E-2,9.501946E-3],"split_indices":[0,0,1,1,1,3,4,0,0,0,0,0,0,0,0],"split_type":[0,0,0,0,0,0,0,0,0,0,0,0,0,0,0],"sum_hessian":[2.2996948E3,2.0721921E3,2.275027E2,5.1834076E2,1.5538513E3,6.1374523E1,1.6612817E2,1.3326591E2,3.8507483E2,1.1845997E3,3.692515E2,2.83962E1,3.297832E1,1.2544615E2,4.068202E1],"tree_param":{"num_deleted":"0","num_feature":"5","num_nodes":"15","size_leaf_vector":"1"}},{"base_weights":[-9.836564E-3,-2.108593E-1,2.6884916E-1,-4.1958407E-1,1.6927255E-2,1.2176561E-1,6.5010697E-1,-3.5414964E-2,-1.6384402E-2,-2.0997576E-2,1.4919288E-2,-7.4282084E-3,2.4274096E-2,3.0124249E-2,5.396528E-2],"categories":[],"categories_nodes":[],"categories_segments":[],"categories_sizes":[],"default_left":[0,0,0,0,0,0,0,0,0,0,0,0,0,0,0],"id":51,"left_children":[1,3,5,7,9,11,13,-1,-1,-1,-1,-1,-1,-1,-1],"loss_changes":[9.291185E1,4.5814774E1,3.8894527E1,7.9358826E0,2.8767971E1,2.5815737E1,4.7995605E0,0E0,0E0,0E0,0E0,0E0,0E0,0E0,0E0],"parents":[2147483647,0,0,1,1,2,2,3,3,4,4,5,5,6,6],"right_children":[2,4,6,8,10,12,14,-1,-1,-1,-1,-1,-1,-1,-1],"split_conditions":[1.054E1,1.2E1,1.5E1,7E0,7.06E0,4E0,3E0,-3.5414964E-2,-1.6384402E-2,-2.0997576E-2,1.4919288E-2,-7.4282084E-3,2.4274096E-2,3.0124249E-2,5.396528E-2],"split_indices":[0,1,1,2,0,3,3,0,0,0,0,0,0,0,0],"split_type":[0,0,0,0,0,0,0,0,0,0,0,0,0,0,0],"sum_hessian":[1.6564717E3,9.6246545E2,6.9400616E2,5.0180804E2,4.606574E2,5.017557E2,1.9225046E2,3.4125595E2,1.605521E2,1.7595024E2,2.8470715E2,2.4954738E2,2.5220833E2,6.982067E1,1.2242979E2],"tree_param":{"num_deleted":"0","num_feature":"5","num_nodes":"15","size_leaf_vector":"1"}},{"base_weights":[-7.219415E-3,3.601325E-1,-1.7729162E-1,4.7735706E-1,-1.3613157E-1,1.2799017E-1,-3.556069E-1,4.117987E-2,6.762551E-4,1.6892942E-2,-2.3343282E-2,-5.8476944E-3,3.7786067E-2,-3.514554E-2,-1.21354265E-2],"categories":[],"categories_nodes":[],"categories_segments":[],"categories_sizes":[],"default_left":[0,0,0,0,0,0,0,0,0,0,0,0,0,0,0],"id":52,"left_children":[1,3,5,7,9,11,13,-1,-1,-1,-1,-1,-1,-1,-1],"loss_changes":[9.7255135E1,2.872327E1,5.7967033E1,2.067987E1,7.150159E0,3.4285233E1,1.7849815E1,0E0,0E0,0E0,0E0,0E0,0E0,0E0,0E0],"parents":[2147483647,0,0,1,1,2,2,3,3,4,4,5,5,6,6],"right_children":[2,4,6,8,10,12,14,-1,-1,-1,-1,-1,-1,-1,-1],"split_conditions":[6.56E0,1.5E1,6E0,8E0,3E0,7.29E0,6.82E0,4.117987E-2,6.762551E-4,1.6892942E-2,-2.3343282E-2,-5.8476944E-3,3.7786067E-2,-3.514554E-2,-1.21354265E-2],"split_indices":[0,1,1,2,2,4,4,0,0,0,0,0,0,0,0],"split_type":[0,0,0,0,0,0,0,0,0,0,0,0,0,0,0],"sum_hessian":[1.5546493E3,4.916277E2,1.0630216E3,3.9771893E2,9.390873E1,3.9206882E2,6.7095276E2,3.212646E2,7.645437E1,3.2164623E1,6.1744106E1,2.5954788E2,1.3252092E2,3.7101056E2,2.9994223E2],"tree_param":{"num_deleted":"0","num_feature":"5","num_nodes":"15","size_leaf_vector":"1"}},{"base_weights":[1.2015234E-2,-1.4065598E-1,3.0648345E-2,-2.919622E-1,3.022335E-1,5.8917336E-2,-1.4227818E-1,-4.2785358E-2,-7.041474E-3,2.109187E-3,4.4476956E-2,5.4959473E-3,-7.1672555E-3,1.3731206E-2,-2.625479E-2],"categories":[],"categories_nodes":[],"categories_segments":[],"categories_sizes":[],"default_left":[0,0,0,0,0,0,0,0,0,0,0,0,0,0,0],"id":53,"left_children":[1,3,5,7,9,11,13,-1,-1,-1,-1,-1,-1,-1,-1],"loss_changes":[6.5234604E0,1.6804117E1,9.996501E0,1.1329028E1,5.783485E0,5.561377E0,2.2714325E1,0E0,0E0,0E0,0E0,0E0,0E0,0E0,0E0],"parents":[2147483647,0,0,1,1,2,2,3,3,4,4,5,5,6,6],"right_children":[2,4,6,8,10,12,14,-1,-1,-1,-1,-1,-1,-1,-1],"split_conditions":[5.17E0,1.5E1,1.7E1,4E0,6E0,1.295E1,8.53E0,-4.2785358E-2,-7.041474E-3,2.109187E-3,4.4476956E-2,5.4959473E-3,-7.1672555E-3,1.3731206E-2,-2.625479E-2],"split_indices":[0,1,1,2,2,0,0,0,0,0,0,0,0,0,0],"split_type":[0,0,0,0,0,0,0,0,0,0,0,0,0,0,0],"sum_hessian":[2.2906504E3,2.4844627E2,2.0422041E3,1.8543582E2,6.3010456E1,1.7558307E3,2.863734E2,6.867431E1,1.1676151E2,3.528324E1,2.7727215E1,1.5660891E3,1.8974161E2,1.1676863E2,1.6960478E2],"tree_param":{"num_deleted":"0","num_feature":"5","num_nodes":"15","size_leaf_vector":"1"}},{"base_weights":[-1.0105506E-2,-3.0638468E-1,1.6794075E-1,-4.987939E-1,-7.6742224E-2,-1.20704524E-1,3.4957477E-1,-1.8382585E-2,-3.7808068E-2,-2.9977908E-2,9.970837E-3,-2.08828E-2,1.1936378E-2,8.776695E-3,3.9151996E-2],"categories":[],"categories_nodes":[],"categories_segments":[],"categories_sizes":[],"default_left":[0,0,0,0,0,0,0,0,0,0,0,0,0,0,0],"id":54,"left_children":[1,3,5,7,9,11,13,-1,-1,-1,-1,-1,-1,-1,-1],"loss_changes":[8.6751595E1,2.7237019E1,5.389959E1,3.1343613E0,2.18341E1,2.0612627E1,2.9589935E1,0E0,0E0,0E0,0E0,0E0,0E0,0E0,0E0],"parents":[2147483647,0,0,1,1,2,2,3,3,4,4,5,5,6,6],"right_children":[2,4,6,8,10,12,14,-1,-1,-1,-1,-1,-1,-1,-1],"split_conditions":[8.82E0,1.3E1,9E0,4.81E0,5E0,1.225E1,5E0,-1.8382585E-2,-3.7808068E-2,-2.9977908E-2,9.970837E-3,-2.08828E-2,1.1936378E-2,8.776695E-3,3.9151996E-2],"split_indices":[0,1,1,4,2,0,2,0,0,0,0,0,0,0,0],"split_type":[0,0,0,0,0,0,0,0,0,0,0,0,0,0,0],"sum_hessian":[1.6425609E3,6.162931E2,1.0262678E3,3.346934E2,2.8159973E2,3.9650076E2,6.297671E2,5.093174E1,2.8376166E2,1.07785385E2,1.7381433E2,2.4627205E2,1.5022871E2,3.051673E2,3.245998E2],"tree_param":{"num_deleted":"0","num_feature":"5","num_nodes":"15","size_leaf_vector":"1"}},{"base_weights":[-7.464914E-3,1.5538967E-1,-3.7065175E-1,2.7982074E-1,-2.7279422E-1,-4.464671E-2,-4.7115296E-1,3.629812E-2,1.5088237E-3,1.2079631E-2,-2.7528683E-2,2.9750688E-2,-2.1359673E-2,-2.3634037E-2,-3.6480132E-2],"categories":[],"categories_nodes":[],"categories_segments":[],"categories_sizes":[],"default_left":[0,0,0,0,0,0,0,0,0,0,0,0,0,0,0],"id":55,"left_children":[1,3,5,7,9,11,13,-1,-1,-1,-1,-1,-1,-1,-1],"loss_changes":[9.140361E1,5.692441E1,1.5653824E1,5.099076E1,1.2985327E1,1.4056847E1,2.2643204E0,0E0,0E0,0E0,0E0,0E0,0E0,0E0,0E0],"parents":[2147483647,0,0,1,1,2,2,3,3,4,4,5,5,6,6],"right_children":[2,4,6,8,10,12,14,-1,-1,-1,-1,-1,-1,-1,-1],"split_conditions":[9.58E0,1.4E1,2E0,5E0,5.17E0,5E0,5E0,3.629812E-2,1.5088237E-3,1.2079631E-2,-2.7528683E-2,2.9750688E-2,-2.1359673E-2,-2.3634037E-2,-3.6480132E-2],"split_indices":[0,1,2,2,0,1,1,0,0,0,0,0,0,0,0],"split_type":[0,0,0,0,0,0,0,0,0,0,0,0,0,0,0],"sum_hessian":[1.5433992E3,1.0659807E3,4.7741833E2,8.2622473E2,2.3975603E2,1.1283838E2,3.6457996E2,4.2883276E2,3.97392E2,5.0954887E1,1.8880115E2,4.0031494E1,7.2806885E1,1.0142797E2,2.63152E2],"tree_param":{"num_deleted":"0","num_feature":"5","num_nodes":"15","size_leaf_vector":"1"}},{"base_weights":[1.2322775E-2,-1.3221467E-1,2.9897764E-2,-2.755278E-1,2.860659E-1,5.652315E-2,-1.3403462E-1,-4.1134495E-2,-6.389131E-3,1.7189425E-3,4.255461E-2,5.1941583E-3,-7.185418E-3,6.275802E-3,-3.181985E-2],"categories":[],"categories_nodes":[],"categories_segments":[],"categories_sizes":[],"default_left":[0,0,0,0,0,0,0,0,0,0,0,0,0,0,0],"id":56,"left_children":[1,3,5,7,9,11,13,-1,-1,-1,-1,-1,-1,-1,-1],"loss_changes":[5.8043456E0,1.4929209E1,8.897143E0,1.0586563E1,5.347431E0,4.940028E0,2.046571E1,0E0,0E0,0E0,0E0,0E0,0E0,0E0,0E0],"parents":[2147483647,0,0,1,1,2,2,3,3,4,4,5,5,6,6],"right_children":[2,4,6,8,10,12,14,-1,-1,-1,-1,-1,-1,-1,-1],"split_conditions":[5.17E0,1.5E1,1.7E1,4E0,6E0,1.303E1,6E0,-4.1134495E-2,-6.389131E-3,1.7189425E-3,4.255461E-2,5.1941583E-3,-7.185418E-3,6.275802E-3,-3.181985E-2],"split_indices":[0,1,1,2,2,0,2,0,0,0,0,0,0,0,0],"split_type":[0,0,0,0,0,0,0,0,0,0,0,0,0,0,0],"sum_hessian":[2.2823997E3,2.4673317E2,2.0356666E3,1.8402351E2,6.270966E1,1.7517999E3,2.8386667E2,6.749863E1,1.1652488E2,3.5192207E1,2.7517452E1,1.5771598E3,1.7464009E2,1.6761491E2,1.1625176E2],"tree_param":{"num_deleted":"0","num_feature":"5","num_nodes":"15","size_leaf_vector":"1"}},{"base_weights":[-1.0705349E-2,-3.0005637E-1,1.6022529E-1,-4.9329153E-1,-7.598203E-2,-3.9461948E-2,4.033852E-1,-1.7831853E-2,-3.7501197E-2,-2.9493937E-2,9.434652E-3,-1.3459607E-2,1.8241795E-2,6.727804E-3,3.7302427E-2],"categories":[],"categories_nodes":[],"categories_segments":[],"categories_sizes":[],"default_left":[0,0,0,0,0,0,0,0,0,0,0,0,0,0,0],"id":57,"left_children":[1,3,5,7,9,11,13,-1,-1,-1,-1,-1,-1,-1,-1],"loss_changes":[8.062669E1,2.6174458E1,4.9777573E1,3.1525574E0,2.0546799E1,2.5895E1,1.8341682E1,0E0,0E0,0E0,0E0,0E0,0E0,0E0,0E0],"parents":[2147483647,0,0,1,1,2,2,3,3,4,4,5,5,6,6],"right_children":[2,4,6,8,10,12,14,-1,-1,-1,-1,-1,-1,-1,-1],"split_conditions":[8.82E0,1.3E1,1.2E1,4.81E0,5E0,7E0,3E0,-1.7831853E-2,-3.7501197E-2,-2.9493937E-2,9.434652E-3,-1.3459607E-2,1.8241795E-2,6.727804E-3,3.7302427E-2],"split_indices":[0,1,1,4,2,2,2,0,0,0,0,0,0,0,0],"split_type":[0,0,0,0,0,0,0,0,0,0,0,0,0,0,0],"sum_hessian":[1.6282018E3,6.0437006E2,1.0238317E3,3.2387137E2,2.8049866E2,5.626287E2,4.61203E2,4.9974052E1,2.738973E2,1.0592644E2,1.7457222E2,3.7301416E2,1.8961455E2,1.3726459E2,3.2393842E2],"tree_param":{"num_deleted":"0","num_feature":"5","num_nodes":"15","size_leaf_vector":"1"}},{"base_weights":[-8.017232E-3,2.153615E-1,-2.5704318E-1,3.225197E-1,-2.593306E-1,1.6489597E-2,-4.23867E-1,6.6544665E-3,3.9309874E-2,2.5506318E-3,-2.9744638E-2,-1.621732E-2,2.8010517E-2,-3.4370113E-2,-1.0512128E-2],"categories":[],"categories_nodes":[],"categories_segments":[],"categories_sizes":[],"default_left":[0,0,0,0,0,0,0,0,0,0,0,0,0,0,0],"id":58,"left_children":[1,3,5,7,9,11,13,-1,-1,-1,-1,-1,-1,-1,-1],"loss_changes":[8.526683E1,4.11865E1,3.3080467E1,3.581523E1,7.331189E0,2.6327316E1,8.199303E0,0E0,0E0,0E0,0E0,0E0,0E0,0E0,0E0],"parents":[2147483647,0,0,1,1,2,2,3,3,4,4,5,5,6,6],"right_children":[2,4,6,8,10,12,14,-1,-1,-1,-1,-1,-1,-1,-1],"split_conditions":[8.17E0,1.5E1,6E0,6.59E0,3E0,7.09E0,8.09E0,6.6544665E-3,3.9309874E-2,2.5506318E-3,-2.9744638E-2,-1.621732E-2,2.8010517E-2,-3.4370113E-2,-1.0512128E-2],"split_indices":[0,1,1,4,3,4,4,0,0,0,0,0,0,0,0],"split_type":[0,0,0,0,0,0,0,0,0,0,0,0,0,0,0],"sum_hessian":[1.5308337E3,8.070432E2,7.237905E2,6.586732E2,1.4837E2,2.7454074E2,4.492498E2,3.3823776E2,3.2043542E2,5.3533253E1,9.483674E1,1.6694852E2,1.0759221E2,3.6012128E2,8.912851E1],"tree_param":{"num_deleted":"0","num_feature":"5","num_nodes":"15","size_leaf_vector":"1"}},{"base_weights":[1.3056969E-2,-1.1843641E-1,3.082556E-2,-4.6883672E-1,7.204231E-2,6.9314964E-2,-9.284796E-2,1.49469655E-2,-3.6608737E-2,-1.1730568E-2,3.1694066E-2,-6.801481E-3,6.8220645E-3,7.416456E-3,-3.1694192E-2],"categories":[],"categories_nodes":[],"categories_segments":[],"categories_sizes":[],"default_left":[0,0,0,0,0,0,0,0,0,0,0,0,0,0,0],"id":59,"left_children":[1,3,5,7,9,11,13,-1,-1,-1,-1,-1,-1,-1,-1],"loss_changes":[5.322233E0,1.8134031E1,9.555999E0,3.6451454E0,1.6183037E1,7.18055E0,3.4149113E1,0E0,0E0,0E0,0E0,0E0,0E0,0E0,0E0],"parents":[2147483647,0,0,1,1,2,2,3,3,4,4,5,5,6,6],"right_children":[2,4,6,8,10,12,14,-1,-1,-1,-1,-1,-1,-1,-1],"split_conditions":[5.28E0,8E0,1.5E1,4.38E0,5E0,6.59E0,1.054E1,1.49469655E-2,-3.6608737E-2,-1.1730568E-2,3.1694066E-2,-6.801481E-3,6.8220645E-3,7.416456E-3,-3.1694192E-2],"split_indices":[0,1,1,4,3,0,0,0,0,0,0,0,0,0,0],"split_type":[0,0,0,0,0,0,0,0,0,0,0,0,0,0,0],"sum_hessian":[2.27535E3,2.7019003E2,2.00516E3,9.463686E1,1.7555316E2,1.5295702E3,4.7558994E2,6.7409134E0,8.789595E1,1.0808626E2,6.746691E1,2.2082712E2,1.308743E3,3.0682663E2,1.687633E2],"tree_param":{"num_deleted":"0","num_feature":"5","num_nodes":"15","size_leaf_vector":"1"}},{"base_weights":[-1.1057334E-2,-1.7261814E-1,2.8002897E-1,-3.6305588E-1,6.606243E-2,-1.2875411E-1,3.8364753E-1,-3.430619E-2,-1.4967753E-2,-2.4896521E-2,1.3911053E-2,-1.786324E-2,1.8069303E-2,8.9776525E-3,3.7756447E-2],"categories":[],"categories_nodes":[],"categories_segments":[],"categories_sizes":[],"default_left":[0,0,0,0,0,0,0,0,0,0,0,0,0,0,0],"id":60,"left_children":[1,3,5,7,9,11,13,-1,-1,-1,-1,-1,-1,-1,-1],"loss_changes":[7.5937836E1,4.7221024E1,2.4462215E1,1.0846725E1,2.5899902E1,5.8036957E0,1.8228386E1,0E0,0E0,0E0,0E0,0E0,0E0,0E0,0E0],"parents":[2147483647,0,0,1,1,2,2,3,3,4,4,5,5,6,6],"right_children":[2,4,6,8,10,12,14,-1,-1,-1,-1,-1,-1,-1,-1],"split_conditions":[1.105E1,1.3E1,5E0,8.77E0,6.24E0,1.347E1,4E0,-3.430619E-2,-1.4967753E-2,-2.4896521E-2,1.3911053E-2,-1.786324E-2,1.8069303E-2,8.9776525E-3,3.7756447E-2],"split_indices":[0,1,1,0,0,0,2,0,0,0,0,0,0,0,0],"split_type":[0,0,0,0,0,0,0,0,0,0,0,0,0,0,0],"sum_hessian":[1.612704E3,1.0373523E3,5.753517E2,5.766975E2,4.606548E2,1.1629933E2,4.5905234E2,3.102843E2,2.664132E2,1.0983281E2,3.5082196E2,8.79105E1,2.8388832E1,1.745752E2,2.8447714E2],"tree_param":{"num_deleted":"0","num_feature":"5","num_nodes":"15","size_leaf_vector":"1"}},{"base_weights":[-8.493621E-3,1.418206E-1,-3.5806552E-1,1.5116439E-2,5.2620935E-1,-3.4160573E-2,-4.6131396E-1,1.6140144E-2,-1.6578097E-2,4.7425173E-2,8.500053E-3,3.2104325E-2,-1.8445224E-2,-3.661809E-2,-2.4193382E-2],"categories":[],"categories_nodes":[],"categories_segments":[],"categories_sizes":[],"default_left":[0,0,0,0,0,0,0,0,0,0,0,0,0,0,0],"id":61,"left_children":[1,3,5,7,9,11,13,-1,-1,-1,-1,-1,-1,-1,-1],"loss_changes":[7.992304E1,5.1797905E1,1.5279572E1,4.353722E1,1.6064964E1,1.2737083E1,2.298355E0,0E0,0E0,0E0,0E0,0E0,0E0,0E0,0E0],"parents":[2147483647,0,0,1,1,2,2,3,3,4,4,5,5,6,6],"right_children":[2,4,6,8,10,12,14,-1,-1,-1,-1,-1,-1,-1,-1],"split_conditions":[9.58E0,7.83E0,2E0,9E0,7E0,4E0,7.13E0,1.6140144E-2,-1.6578097E-2,4.7425173E-2,8.500053E-3,3.2104325E-2,-1.8445224E-2,-3.661809E-2,-2.4193382E-2],"split_indices":[0,4,2,1,2,1,4,0,0,0,0,0,0,0,0],"split_type":[0,0,0,0,0,0,0,0,0,0,0,0,0,0,0],"sum_hessian":[1.5190554E3,1.0626957E3,4.563597E2,8.000263E2,2.626694E2,1.10629684E2,3.4573E2,4.312872E2,3.6873914E2,1.907134E2,7.1955986E1,3.4817257E1,7.581242E1,2.2305621E2,1.2267381E2],"tree_param":{"num_deleted":"0","num_feature":"5","num_nodes":"15","size_leaf_vector":"1"}},{"base_weights":[1.3563842E-2,3.597112E-2,-8.743144E-2,-1.21076316E-1,7.199269E-2,2.7317327E-1,-2.1615405E-1,-2.8575525E-2,4.5824805E-3,-2.8707332E-3,6.279737E-3,2.5616148E-2,1.4838511E-3,3.8160149E-3,-2.8012482E-2],"categories":[],"categories_nodes":[],"categories_segments":[],"categories_sizes":[],"default_left":[0,0,0,0,0,0,0,0,0,0,0,0,0,0,0],"id":62,"left_children":[1,3,5,7,9,11,13,-1,-1,-1,-1,-1,-1,-1,-1],"loss_changes":[5.1342363E0,1.0510322E1,1.9183022E1,1.8598534E1,3.0282402E0,2.536069E0,1.5172576E1,0E0,0E0,0E0,0E0,0E0,0E0,0E0,0E0],"parents":[2147483647,0,0,1,1,2,2,3,3,4,4,5,5,6,6],"right_children":[2,4,6,8,10,12,14,-1,-1,-1,-1,-1,-1,-1,-1],"split_conditions":[1.204E1,4E0,5E0,4E0,5.17E0,1.355E1,4E0,-2.8575525E-2,4.5824805E-3,-2.8707332E-3,6.279737E-3,2.5616148E-2,1.4838511E-3,3.8160149E-3,-2.8012482E-2],"split_indices":[0,1,1,2,0,0,2,0,0,0,0,0,0,0,0],"split_type":[0,0,0,0,0,0,0,0,0,0,0,0,0,0,0],"sum_hessian":[2.266355E3,1.85536E3,4.109949E2,3.4572055E2,1.5096394E3,1.0782126E2,3.0317365E2,1.3567885E2,2.100417E2,2.044374E2,1.305202E3,7.847589E1,2.9345367E1,1.2298593E2,1.8018773E2],"tree_param":{"num_deleted":"0","num_feature":"5","num_nodes":"15","size_leaf_vector":"1"}},{"base_weights":[-1.1356274E-2,-3.6266038E-1,1.1300839E-1,-1.128026E-1,-4.7269046E-1,-1.2793845E-1,3.0475414E-1,-3.224325E-2,9.211961E-3,-3.6747452E-2,-1.6292783E-2,-1.9082027E-2,1.2042861E-2,1.0432544E-3,3.336129E-2],"categories":[],"categories_nodes":[],"categories_segments":[],"categories_sizes":[],"default_left":[0,0,0,0,0,0,0,0,0,0,0,0,0,0,0],"id":63,"left_children":[1,3,5,7,9,11,13,-1,-1,-1,-1,-1,-1,-1,-1],"loss_changes":[6.990711E1,1.1447533E1,5.463894E1,1.1044611E1,3.516594E0,2.2804203E1,3.278503E1,0E0,0E0,0E0,0E0,0E0,0E0,0E0,0E0],"parents":[2147483647,0,0,1,1,2,2,3,3,4,4,5,5,6,6],"right_children":[2,4,6,8,10,12,14,-1,-1,-1,-1,-1,-1,-1,-1],"split_conditions":[7.54E0,5.38E0,1E1,5E0,1.7E1,1.225E1,3E0,-3.224325E-2,9.211961E-3,-3.6747452E-2,-1.6292783E-2,-1.9082027E-2,1.2042861E-2,1.0432544E-3,3.336129E-2],"split_indices":[0,4,1,2,1,0,3,0,0,0,0,0,0,0,0],"split_type":[0,0,0,0,0,0,0,0,0,0,0,0,0,0,0],"sum_hessian":[1.5981398E3,4.1733624E2,1.1808036E3,1.2821318E2,2.8912305E2,5.2341516E2,6.5738837E2,5.2547173E1,7.566601E1,2.3642662E2,5.2696438E1,3.531861E2,1.7022908E2,2.4507884E2,4.123095E2],"tree_param":{"num_deleted":"0","num_feature":"5","num_nodes":"15","size_leaf_vector":"1"}},{"base_weights":[-8.878498E-3,3.1067097E-1,-1.6338517E-1,-2.2737542E-2,4.4712472E-1,1.1328847E-1,-3.3552244E-1,2.2933448E-2,-2.1310354E-2,3.6915068E-2,-1.827779E-2,-5.807678E-3,3.3710767E-2,-1.2515761E-2,-3.617134E-2],"categories":[],"categories_nodes":[],"categories_segments":[],"categories_sizes":[],"default_left":[0,0,0,0,0,0,0,0,0,0,0,0,0,0,0],"id":64,"left_children":[1,3,5,7,9,11,13,-1,-1,-1,-1,-1,-1,-1,-1],"loss_changes":[7.451266E1,2.2388771E1,4.848644E1,1.4292348E1,1.9974442E1,2.8294987E1,1.7724892E1,0E0,0E0,0E0,0E0,0E0,0E0,0E0,0E0],"parents":[2147483647,0,0,1,1,2,2,3,3,4,4,5,5,6,6],"right_children":[2,4,6,8,10,12,14,-1,-1,-1,-1,-1,-1,-1,-1],"split_conditions":[6.56E0,5.54E0,6E0,4E0,1.7E1,7.29E0,5E0,2.2933448E-2,-2.1310354E-2,3.6915068E-2,-1.827779E-2,-5.807678E-3,3.3710767E-2,-1.2515761E-2,-3.617134E-2],"split_indices":[0,4,1,2,1,4,2,0,0,0,0,0,0,0,0],"split_type":[0,0,0,0,0,0,0,0,0,0,0,0,0,0,0],"sum_hessian":[1.5071649E3,4.9089307E2,1.01627185E3,1.4280338E2,3.480897E2,3.8991278E2,6.263591E2,6.3572426E1,7.923095E1,3.12898E2,3.519166E1,2.5487207E2,1.3504071E2,3.3693616E2,2.8942288E2],"tree_param":{"num_deleted":"0","num_feature":"5","num_nodes":"15","size_leaf_vector":"1"}},{"base_weights":[1.39673995E-2,-1.2077746E-1,3.0268103E-2,-2.546579E-1,2.6594412E-1,5.494921E-2,-1.2314566E-1,-3.9084837E-2,-5.6434614E-3,4.3156836E-4,4.1053236E-2,-4.420075E-3,5.3597046E-3,6.042286E-3,-3.0034047E-2],"categories":[],"categories_nodes":[],"categories_segments":[],"categories_sizes":[],"default_left":[0,0,0,0,0,0,0,0,0,0,0,0,0,0,0],"id":65,"left_children":[1,3,5,7,9,11,13,-1,-1,-1,-1,-1,-1,-1,-1],"loss_changes":[4.965117E0,1.2699427E1,7.6397886E0,9.560998E0,5.26145E0,4.439835E0,1.7958206E1,0E0,0E0,0E0,0E0,0E0,0E0,0E0,0E0],"parents":[2147483647,0,0,1,1,2,2,3,3,4,4,5,5,6,6],"right_children":[2,4,6,8,10,12,14,-1,-1,-1,-1,-1,-1,-1,-1],"split_conditions":[5.17E0,1.5E1,1.7E1,4E0,6E0,6.59E0,6E0,-3.9084837E-2,-5.6434614E-3,4.3156836E-4,4.1053236E-2,-4.420075E-3,5.3597046E-3,6.042286E-3,-3.0034047E-2],"split_indices":[0,1,1,2,2,0,2,0,0,0,0,0,0,0,0],"split_type":[0,0,0,0,0,0,0,0,0,0,0,0,0,0,0],"sum_hessian":[2.257869E3,2.4297552E2,2.0148934E3,1.8074448E2,6.2231045E1,1.7362142E3,2.786792E2,6.504021E1,1.1570427E2,3.4935932E1,2.7295113E1,2.683534E2,1.4678608E3,1.6584186E2,1.1283733E2],"tree_param":{"num_deleted":"0","num_feature":"5","num_nodes":"15","size_leaf_vector":"1"}},{"base_weights":[-1.1188808E-2,-1.6456984E-1,2.609751E-1,-3.5093158E-1,6.1215844E-2,1.436987E-1,5.857062E-1,-3.1349782E-2,-1.0312143E-2,1.7760241E-2,-1.501594E-2,-4.7178427E-3,2.4328725E-2,4.7725625E-2,2.0465111E-2],"categories":[],"categories_nodes":[],"categories_segments":[],"categories_sizes":[],"default_left":[0,0,0,0,0,0,0,0,0,0,0,0,0,0,0],"id":66,"left_children":[1,3,5,7,9,11,13,-1,-1,-1,-1,-1,-1,-1,-1],"loss_changes":[6.629767E1,4.2759583E1,2.1716454E1,1.0917923E1,2.4476833E1,1.8178417E1,4.0727425E0,0E0,0E0,0E0,0E0,0E0,0E0,0E0,0E0],"parents":[2147483647,0,0,1,1,2,2,3,3,4,4,5,5,6,6],"right_children":[2,4,6,8,10,12,14,-1,-1,-1,-1,-1,-1,-1,-1],"split_conditions":[1.105E1,1.3E1,1.5E1,7E0,6.87E0,4E0,7.69E0,-3.1349782E-2,-1.0312143E-2,1.7760241E-2,-1.501594E-2,-4.7178427E-3,2.4328725E-2,4.7725625E-2,2.0465111E-2],"split_indices":[0,1,1,2,4,3,4,0,0,0,0,0,0,0,0],"split_type":[0,0,0,0,0,0,0,0,0,0,0,0,0,0,0],"sum_hessian":[1.5861378E3,1.014692E3,5.714458E2,5.555725E2,4.591195E2,4.208857E2,1.5056007E2,3.7558954E2,1.79983E2,2.7041068E2,1.8870883E2,2.0709895E2,2.1378676E2,1.1241378E2,3.8146294E1],"tree_param":{"num_deleted":"0","num_feature":"5","num_nodes":"15","size_leaf_vector":"1"}},{"base_weights":[-9.522584E-3,1.3084295E-1,-3.475315E-1,3.8306457E-1,-5.0918378E-2,-2.8491942E-2,-4.526427E-1,3.4954872E-2,-9.186866E-3,1.8470552E-2,-1.5971072E-2,1.432312E-2,-3.3282626E-2,-3.6165047E-2,-2.3440698E-2],"categories":[],"categories_nodes":[],"categories_segments":[],"categories_sizes":[],"default_left":[0,0,0,0,0,0,0,0,0,0,0,0,0,0,0],"id":67,"left_children":[1,3,5,7,9,11,13,-1,-1,-1,-1,-1,-1,-1,-1],"loss_changes":[7.1079094E1,4.855031E1,1.4728268E1,2.6589813E1,3.4434906E1,1.1558754E1,2.3188019E0,0E0,0E0,0E0,0E0,0E0,0E0,0E0,0E0],"parents":[2147483647,0,0,1,1,2,2,3,3,4,4,5,5,6,6],"right_children":[2,4,6,8,10,12,14,-1,-1,-1,-1,-1,-1,-1,-1],"split_conditions":[9.58E0,4E0,2E0,1.5E1,6E0,1.1E1,7.13E0,3.4954872E-2,-9.186866E-3,1.8470552E-2,-1.5971072E-2,1.432312E-2,-3.3282626E-2,-3.6165047E-2,-2.3440698E-2],"split_indices":[0,2,2,1,1,1,4,0,0,0,0,0,0,0,0],"split_type":[0,0,0,0,0,0,0,0,0,0,0,0,0,0,0],"sum_hessian":[1.4961844E3,1.0576042E3,4.385802E2,4.424834E2,6.151208E2,1.0900203E2,3.295782E2,3.60907E2,8.1576385E1,2.2140675E2,3.9371405E2,7.1996376E1,3.700565E1,2.1134425E2,1.1823394E2],"tree_param":{"num_deleted":"0","num_feature":"5","num_nodes":"15","size_leaf_vector":"1"}},{"base_weights":[1.4217714E-2,-1.13538876E-1,2.9604796E-2,-3.821932E-1,7.157227E-2,5.317495E-2,-1.17356785E-1,2.049604E-2,-3.153662E-2,-2.290544E-2,2.0693438E-2,4.6125255E-3,-8.448361E-3,5.9861867E-3,-2.9112168E-2],"categories":[],"categories_nodes":[],"categories_segments":[],"categories_sizes":[],"default_left":[0,0,0,0,0,0,0,0,0,0,0,0,0,0,0],"id":68,"left_children":[1,3,5,7,9,11,13,-1,-1,-1,-1,-1,-1,-1,-1],"loss_changes":[4.429925E0,1.2075178E1,6.970515E0,4.6973934E0,1.2987427E1,3.8408122E0,1.6884394E1,0E0,0E0,0E0,0E0,0E0,0E0,0E0,0E0],"parents":[2147483647,0,0,1,1,2,2,3,3,4,4,5,5,6,6],"right_children":[2,4,6,8,10,12,14,-1,-1,-1,-1,-1,-1,-1,-1],"split_conditions":[5.17E0,9E0,1.7E1,4.41E0,3E0,1.336E1,6E0,2.049604E-2,-3.153662E-2,-2.290544E-2,2.0693438E-2,4.6125255E-3,-8.448361E-3,5.9861867E-3,-2.9112168E-2],"split_indices":[0,1,1,4,3,0,2,0,0,0,0,0,0,0,0],"split_type":[0,0,0,0,0,0,0,0,0,0,0,0,0,0,0],"sum_hessian":[2.250786E3,2.4126024E2,2.0095256E3,9.7986465E1,1.4327377E2,1.7323278E3,2.7719794E2,8.70541E0,8.928106E1,5.1372757E1,9.190101E1,1.6148245E3,1.1750323E2,1.6546558E2,1.1173235E2],"tree_param":{"num_deleted":"0","num_feature":"5","num_nodes":"15","size_leaf_vector":"1"}},{"base_weights":[-1.1576168E-2,-3.5371885E-1,1.0677387E-1,-1.1059826E-1,-4.6407184E-1,-1.5466252E-1,2.6284033E-1,-3.1711906E-2,8.337099E-3,-3.6184408E-2,-1.6238214E-2,-2.191928E-2,9.972804E-3,-1.4069414E-3,3.0165892E-2],"categories":[],"categories_nodes":[],"categories_segments":[],"categories_sizes":[],"default_left":[0,0,0,0,0,0,0,0,0,0,0,0,0,0,0],"id":69,"left_children":[1,3,5,7,9,11,13,-1,-1,-1,-1,-1,-1,-1,-1],"loss_changes":[6.3816174E1,1.0815384E1,4.7820312E1,1.0103266E1,3.293354E0,2.068592E1,3.4903183E1,0E0,0E0,0E0,0E0,0E0,0E0,0E0,0E0],"parents":[2147483647,0,0,1,1,2,2,3,3,4,4,5,5,6,6],"right_children":[2,4,6,8,10,12,14,-1,-1,-1,-1,-1,-1,-1,-1],"split_conditions":[7.54E0,5.38E0,9E0,5E0,1.7E1,1.225E1,3E0,-3.1711906E-2,8.337099E-3,-3.6184408E-2,-1.6238214E-2,-2.191928E-2,9.972804E-3,-1.4069414E-3,3.0165892E-2],"split_indices":[0,4,1,2,1,0,3,0,0,0,0,0,0,0,0],"split_type":[0,0,0,0,0,0,0,0,0,0,0,0,0,0,0],"sum_hessian":[1.5740632E3,4.040348E2,1.1700284E3,1.26763084E2,2.772717E2,4.373709E2,7.3265753E2,5.0502823E1,7.626026E1,2.2484715E2,5.2424553E1,2.852067E2,1.5216422E2,2.7338666E2,4.5927087E2],"tree_param":{"num_deleted":"0","num_feature":"5","num_nodes":"15","size_leaf_vector":"1"}},{"base_weights":[-9.596158E-3,1.2516296E-1,-3.4085432E-1,-5.921693E-2,3.67417E-1,-2.5759066E-2,-4.470061E-1,1.054644E-2,-2.2195391E-2,3.5196714E-2,2.3638058E-4,1.3779486E-2,-3.2874152E-2,-3.5871107E-2,-2.2971168E-2],"categories":[],"categories_nodes":[],"categories_segments":[],"categories_sizes":[],"default_left":[0,0,0,0,0,0,0,0,0,0,0,0,0,0,0],"id":70,"left_children":[1,3,5,7,9,11,13,-1,-1,-1,-1,-1,-1,-1,-1],"loss_changes":[6.631026E1,4.7187496E1,1.4355732E1,3.2544296E1,2.2498085E1,1.0892639E1,2.3301392E0,0E0,0E0,0E0,0E0,0E0,0E0,0E0,0E0],"parents":[2147483647,0,0,1,1,2,2,3,3,4,4,5,5,6,6],"right_children":[2,4,6,8,10,12,14,-1,-1,-1,-1,-1,-1,-1,-1],"split_conditions":[9.58E0,6.93E0,2E0,9E0,7E0,1.1E1,7.13E0,1.054644E-2,-2.2195391E-2,3.5196714E-2,2.3638058E-4,1.3779486E-2,-3.2874152E-2,-3.5871107E-2,-2.2971168E-2],"split_indices":[0,4,2,1,2,1,4,0,0,0,0,0,0,0,0],"split_type":[0,0,0,0,0,0,0,0,0,0,0,0,0,0,0],"sum_hessian":[1.4834874E3,1.0549468E3,4.2854068E2,5.9945575E2,4.5549103E2,1.0830288E2,3.202378E2,3.3070245E2,2.6875333E2,3.3173245E2,1.2375856E2,7.249965E1,3.5803234E1,2.0438771E2,1.1585009E2],"tree_param":{"num_deleted":"0","num_feature":"5","num_nodes":"15","size_leaf_vector":"1"}},{"base_weights":[1.4474885E-2,-1.0932118E-1,2.9322412E-2,-3.6985713E-1,6.802021E-2,5.164273E-2,-1.10390425E-1,1.9962646E-2,-3.0616937E-2,-2.2185873E-2,1.9970642E-2,-3.915793E-3,4.9928282E-3,1.228407E-2,-2.219925E-2],"categories":[],"categories_nodes":[],"categories_segments":[],"categories_sizes":[],"default_left":[0,0,0,0,0,0,0,0,0,0,0,0,0,0,0],"id":71,"left_children":[1,3,5,7,9,11,13,-1,-1,-1,-1,-1,-1,-1,-1],"loss_changes":[4.127435E0,1.1137256E1,6.255938E0,4.4400864E0,1.2130122E1,3.6650367E0,1.6392372E1,0E0,0E0,0E0,0E0,0E0,0E0,0E0,0E0],"parents":[2147483647,0,0,1,1,2,2,3,3,4,4,5,5,6,6],"right_children":[2,4,6,8,10,12,14,-1,-1,-1,-1,-1,-1,-1,-1],"split_conditions":[5.17E0,9E0,1.7E1,4.41E0,3E0,6.59E0,8.53E0,1.9962646E-2,-3.0616937E-2,-2.2185873E-2,1.9970642E-2,-3.915793E-3,4.9928282E-3,1.228407E-2,-2.219925E-2],"split_indices":[0,1,1,4,3,0,0,0,0,0,0,0,0,0,0],"split_type":[0,0,0,0,0,0,0,0,0,0,0,0,0,0,0],"sum_hessian":[2.2427883E3,2.395018E2,2.0032865E3,9.655915E1,1.4294264E2,1.7278741E3,2.754123E2,8.722759E0,8.7836395E1,5.1405354E1,9.1537285E1,2.6695386E2,1.4609203E3,1.1564816E2,1.5976413E2],"tree_param":{"num_deleted":"0","num_feature":"5","num_nodes":"15","size_leaf_vector":"1"}},{"base_weights":[-1.1721191E-2,-3.8846645E-1,9.0311766E-2,-4.938506E-1,-1.9894408E-1,-1.1353913E-1,2.784828E-1,-3.7481688E-2,-1.8289177E-2,-3.674743E-2,2.0387073E-3,6.3601937E-3,-2.2060703E-2,-2.02882E-4,3.1541746E-2],"categories":[],"categories_nodes":[],"categories_segments":[],"categories_sizes":[],"default_left":[0,0,0,0,0,0,0,0,0,0,0,0,0,0,0],"id":72,"left_children":[1,3,5,7,9,11,13,-1,-1,-1,-1,-1,-1,-1,-1],"loss_changes":[6.0126728E1,6.5592804E0,4.7247803E1,1.9262657E0,8.996606E0,2.440612E1,3.1013638E1,0E0,0E0,0E0,0E0,0E0,0E0,0E0,0E0],"parents":[2147483647,0,0,1,1,2,2,3,3,4,4,5,5,6,6],"right_children":[2,4,6,8,10,12,14,-1,-1,-1,-1,-1,-1,-1,-1],"split_conditions":[7.06E0,7E0,1.1E1,1.8E1,1E1,6.4E0,4E0,-3.7481688E-2,-1.8289177E-2,-3.674743E-2,2.0387073E-3,6.3601937E-3,-2.2060703E-2,-2.02882E-4,3.1541746E-2],"split_indices":[0,2,1,1,1,4,2,0,0,0,0,0,0,0,0],"split_type":[0,0,0,0,0,0,0,0,0,0,0,0,0,0,0],"sum_hessian":[1.5622404E3,3.3233252E2,1.2299078E3,2.1254234E2,1.1979017E2,5.905477E2,6.3936017E2,1.7918791E2,3.335443E1,4.8771103E1,7.101907E1,2.935211E2,2.9702667E2,2.4302773E2,3.9633243E2],"tree_param":{"num_deleted":"0","num_feature":"5","num_nodes":"15","size_leaf_vector":"1"}},{"base_weights":[-1.0077256E-2,1.7580506E-1,-2.3516583E-1,4.9476204E-3,4.1294757E-1,1.3592768E-2,-4.0135065E-1,1.522526E-2,-1.7381819E-2,3.459768E-2,-1.761029E-2,1.971128E-2,-2.1242285E-2,-3.308949E-2,-8.912209E-3],"categories":[],"categories_nodes":[],"categories_segments":[],"categories_sizes":[],"default_left":[0,0,0,0,0,0,0,0,0,0,0,0,0,0,0],"id":73,"left_children":[1,3,5,7,9,11,13,-1,-1,-1,-1,-1,-1,-1,-1],"loss_changes":[6.168328E1,3.2715317E1,2.7570583E1,2.5373726E1,1.8393593E1,2.2858763E1,7.757019E0,0E0,0E0,0E0,0E0,0E0,0E0,0E0,0E0],"parents":[2147483647,0,0,1,1,2,2,3,3,4,4,5,5,6,6],"right_children":[2,4,6,8,10,12,14,-1,-1,-1,-1,-1,-1,-1,-1],"split_conditions":[8.21E0,6.93E0,6E0,9E0,1.7E1,5E0,8.09E0,1.522526E-2,-1.7381819E-2,3.459768E-2,-1.761029E-2,1.971128E-2,-2.1242285E-2,-3.308949E-2,-8.912209E-3],"split_indices":[0,4,1,1,1,2,4,0,0,0,0,0,0,0,0],"split_type":[0,0,0,0,0,0,0,0,0,0,0,0,0,0,0],"sum_hessian":[1.4722782E3,8.06486E2,6.657922E2,4.6934857E2,3.3713745E2,2.6701746E2,3.9877472E2,2.5525703E2,2.1409155E2,3.0061334E2,3.6524086E1,1.4476418E2,1.2225329E2,3.1581396E2,8.296075E1],"tree_param":{"num_deleted":"0","num_feature":"5","num_nodes":"15","size_leaf_vector":"1"}},{"base_weights":[1.4828741E-2,-1.0804327E-1,2.9501557E-2,-3.9010075E-1,5.0825737E-2,5.0742526E-2,-1.0405303E-1,-3.8093336E-2,3.3164138E-4,-2.8528128E-2,1.3847958E-2,-3.782626E-3,4.8929555E-3,6.5346905E-3,-2.7870262E-2],"categories":[],"categories_nodes":[],"categories_segments":[],"categories_sizes":[],"default_left":[0,0,0,0,0,0,0,0,0,0,0,0,0,0,0],"id":74,"left_children":[1,3,5,7,9,11,13,-1,-1,-1,-1,-1,-1,-1,-1],"loss_changes":[4.035952E0,1.0722018E1,5.6761413E0,5.24514E0,1.04348E1,3.4670591E0,1.59811125E1,0E0,0E0,0E0,0E0,0E0,0E0,0E0,0E0],"parents":[2147483647,0,0,1,1,2,2,3,3,4,4,5,5,6,6],"right_children":[2,4,6,8,10,12,14,-1,-1,-1,-1,-1,-1,-1,-1],"split_conditions":[5.17E0,4E0,1.7E1,6E0,6E0,6.59E0,6E0,-3.8093336E-2,3.3164138E-4,-2.8528128E-2,1.3847958E-2,-3.782626E-3,4.8929555E-3,6.5346905E-3,-2.7870262E-2],"split_indices":[0,2,1,3,1,0,2,0,0,0,0,0,0,0,0],"split_type":[0,0,0,0,0,0,0,0,0,0,0,0,0,0,0],"sum_hessian":[2.2358481E3,2.3783386E2,1.9980142E3,8.516884E1,1.5266502E2,1.7243827E3,2.7363153E2,6.0989E1,2.4179842E1,3.6641167E1,1.16023865E2,2.6625522E2,1.4581274E3,1.6413861E2,1.0949292E2],"tree_param":{"num_deleted":"0","num_feature":"5","num_nodes":"15","size_leaf_vector":"1"}},{"base_weights":[-1.172467E-2,-2.6738012E-1,1.3232835E-1,-4.65783E-1,-6.783953E-2,-2.583117E-1,2.2722511E-1,-1.4207309E-2,-3.6200766E-2,-2.7899506E-2,8.614764E-3,-2.413707E-2,1.6097263E-2,-2.658713E-3,2.7282413E-2],"categories":[],"categories_nodes":[],"categories_segments":[],"categories_sizes":[],"default_left":[0,0,0,0,0,0,0,0,0,0,0,0,0,0,0],"id":75,"left_children":[1,3,5,7,9,11,13,-1,-1,-1,-1,-1,-1,-1,-1],"loss_changes":[5.7171265E1,2.2117027E1,3.6868546E1,3.680256E0,1.7733961E1,8.296186E0,3.447207E1,0E0,0E0,0E0,0E0,0E0,0E0,0E0,0E0],"parents":[2147483647,0,0,1,1,2,2,3,3,4,4,5,5,6,6],"right_children":[2,4,6,8,10,12,14,-1,-1,-1,-1,-1,-1,-1,-1],"split_conditions":[8.87E0,1.3E1,5E0,4.81E0,5E0,1.347E1,4E0,-1.4207309E-2,-3.6200766E-2,-2.7899506E-2,8.614764E-3,-2.413707E-2,1.6097263E-2,-2.658713E-3,2.7282413E-2],"split_indices":[0,1,1,4,2,0,2,0,0,0,0,0,0,0,0],"split_type":[0,0,0,0,0,0,0,0,0,0,0,0,0,0,0],"sum_hessian":[1.5504277E3,5.584582E2,9.919695E2,2.7935834E2,2.7909985E2,1.93541E2,7.984285E2,4.6484875E1,2.3287344E2,1.0174717E2,1.7735268E2,1.6466275E2,2.8878256E1,3.036681E2,4.947604E2],"tree_param":{"num_deleted":"0","num_feature":"5","num_nodes":"15","size_leaf_vector":"1"}},{"base_weights":[-1.0618913E-2,1.145989E-1,-3.2950932E-1,2.6945746E-1,-1.5522604E-1,-1.9212184E-2,-4.377288E-1,2.5904974E-2,-1.282703E-2,9.34847E-3,-2.2931743E-2,1.6196549E-2,-2.8539421E-2,-3.540856E-2,-2.2158016E-2],"categories":[],"categories_nodes":[],"categories_segments":[],"categories_sizes":[],"default_left":[0,0,0,0,0,0,0,0,0,0,0,0,0,0,0],"id":76,"left_children":[1,3,5,7,9,11,13,-1,-1,-1,-1,-1,-1,-1,-1],"loss_changes":[5.8394356E1,4.3921093E1,1.3837284E1,3.0474167E1,1.9135857E1,1.0575619E1,2.3626633E0,0E0,0E0,0E0,0E0,0E0,0E0,0E0,0E0],"parents":[2147483647,0,0,1,1,2,2,3,3,4,4,5,5,6,6],"right_children":[2,4,6,8,10,12,14,-1,-1,-1,-1,-1,-1,-1,-1],"split_conditions":[9.58E0,6E0,2E0,1.5E1,6E0,1.208E1,7.13E0,2.5904974E-2,-1.282703E-2,9.34847E-3,-2.2931743E-2,1.6196549E-2,-2.8539421E-2,-3.540856E-2,-2.2158016E-2],"split_indices":[0,2,2,1,1,0,4,0,0,0,0,0,0,0,0],"split_type":[0,0,0,0,0,0,0,0,0,0,0,0,0,0,0],"sum_hessian":[1.4604448E3,1.0491274E3,4.1131735E2,6.665696E2,3.8255786E2,1.0666241E2,3.0465494E2,5.455112E2,1.2105835E2,1.430793E2,2.3947855E2,6.50849E1,4.1577507E1,1.9300813E2,1.1164681E2],"tree_param":{"num_deleted":"0","num_feature":"5","num_nodes":"15","size_leaf_vector":"1"}},{"base_weights":[1.5119413E-2,3.1700667E-2,-9.4316594E-2,-5.4833233E-2,6.624719E-2,2.4536633E-1,-2.3087898E-1,-1.3806904E-2,1.2060495E-2,6.927892E-3,-4.4224383E-3,2.7726494E-2,2.5784734E-3,-2.7204396E-2,7.115357E-3],"categories":[],"categories_nodes":[],"categories_segments":[],"categories_sizes":[],"default_left":[0,0,0,0,0,0,0,0,0,0,0,0,0,0,0],"id":77,"left_children":[1,3,5,7,9,11,13,-1,-1,-1,-1,-1,-1,-1,-1],"loss_changes":[4.0486336E0,5.7939005E0,1.3676565E1,1.792645E1,5.8707304E0,2.646892E0,1.1052116E1,0E0,0E0,0E0,0E0,0E0,0E0,0E0,0E0],"parents":[2147483647,0,0,1,1,2,2,3,3,4,4,5,5,6,6],"right_children":[2,4,6,8,10,12,14,-1,-1,-1,-1,-1,-1,-1,-1],"split_conditions":[1.257E1,6E0,5E0,9.12E0,1.07E1,5E0,7.5E0,-1.3806904E-2,1.2060495E-2,6.927892E-3,-4.4224383E-3,2.7726494E-2,2.5784734E-3,-2.7204396E-2,7.115357E-3],"split_indices":[0,1,1,0,0,3,4,0,0,0,0,0,0,0,0],"split_type":[0,0,0,0,0,0,0,0,0,0,0,0,0,0,0],"sum_hessian":[2.2285132E3,1.9359039E3,2.9260916E2,5.5218225E2,1.3837217E3,8.367662E1,2.0893253E2,3.394674E2,2.1271484E2,1.1046632E3,2.7905847E2,4.804802E1,3.5628605E1,1.415911E2,6.7341446E1],"tree_param":{"num_deleted":"0","num_feature":"5","num_nodes":"15","size_leaf_vector":"1"}},{"base_weights":[-1.1980499E-2,-3.77804E-1,8.392926E-2,-4.8553032E-1,-1.8979463E-1,-3.7192002E-2,3.6938858E-1,-3.7025545E-2,-1.768075E-2,-3.618451E-2,1.9141773E-3,-1.1950459E-2,1.6204815E-2,3.76704E-2,6.6930577E-3],"categories":[],"categories_nodes":[],"categories_segments":[],"categories_sizes":[],"default_left":[0,0,0,0,0,0,0,0,0,0,0,0,0,0,0],"id":78,"left_children":[1,3,5,7,9,11,13,-1,-1,-1,-1,-1,-1,-1,-1],"loss_changes":[5.3993793E1,6.3818703E0,4.2172794E1,1.9146538E0,8.401548E0,3.078704E1,1.6735432E1,0E0,0E0,0E0,0E0,0E0,0E0,0E0,0E0],"parents":[2147483647,0,0,1,1,2,2,3,3,4,4,5,5,6,6],"right_children":[2,4,6,8,10,12,14,-1,-1,-1,-1,-1,-1,-1,-1],"split_conditions":[7.06E0,7E0,1.5E1,1.8E1,1E1,7E0,7.04E0,-3.7025545E-2,-1.768075E-2,-3.618451E-2,1.9141773E-3,-1.1950459E-2,1.6204815E-2,3.76704E-2,6.6930577E-3],"split_indices":[0,2,1,1,1,2,4,0,0,0,0,0,0,0,0],"split_type":[0,0,0,0,0,0,0,0,0,0,0,0,0,0,0],"sum_hessian":[1.5369928E3,3.1864874E2,1.2183441E3,2.0156996E2,1.1707878E2,8.560073E2,3.6233682E2,1.68839E2,3.2730953E1,4.61588E1,7.091998E1,5.7207263E2,2.8393466E2,2.2356238E2,1.3877444E2],"tree_param":{"num_deleted":"0","num_feature":"5","num_nodes":"15","size_leaf_vector":"1"}},{"base_weights":[-1.1152687E-2,2.812197E-1,-1.411066E-1,4.983917E-1,8.425891E-2,5.6174625E-2,-3.4298646E-1,1.2849509E-2,4.338411E-2,3.11506E-2,-5.0205872E-3,-1.9218357E-2,1.8508526E-2,-3.3368822E-2,-1.105865E-2],"categories":[],"categories_nodes":[],"categories_segments":[],"categories_sizes":[],"default_left":[0,0,0,0,0,0,0,0,0,0,0,0,0,0,0],"id":79,"left_children":[1,3,5,7,9,11,13,-1,-1,-1,-1,-1,-1,-1,-1],"loss_changes":[5.5090378E1,1.904279E1,3.9994617E1,7.9874687E0,1.3265434E1,3.5091774E1,1.2199829E1,0E0,0E0,0E0,0E0,0E0,0E0,0E0,0E0],"parents":[2147483647,0,0,1,1,2,2,3,3,4,4,5,5,6,6],"right_children":[2,4,6,8,10,12,14,-1,-1,-1,-1,-1,-1,-1,-1],"split_conditions":[6.41E0,4E0,8E0,5.6E0,6E0,5.99E0,7.11E0,1.2849509E-2,4.338411E-2,3.11506E-2,-5.0205872E-3,-1.9218357E-2,1.8508526E-2,-3.3368822E-2,-1.105865E-2],"split_indices":[0,3,1,4,1,4,4,0,0,0,0,0,0,0,0],"split_type":[0,0,0,0,0,0,0,0,0,0,0,0,0,0,0],"sum_hessian":[1.4478956E3,4.4517343E2,1.0027222E3,2.109958E2,2.3417764E2,5.075022E2,4.9522003E2,5.9411682E1,1.5158412E2,7.013002E1,1.6404762E2,1.9595743E2,3.1154477E2,2.8654556E2,2.086745E2],"tree_param":{"num_deleted":"0","num_feature":"5","num_nodes":"15","size_leaf_vector":"1"}},{"base_weights":[1.5570251E-2,-1.0627985E-1,3.004378E-2,-3.8133886E-1,4.7200896E-2,5.059296E-2,-9.984109E-2,-3.7295036E-2,1.99745E-4,-2.7036672E-2,1.2896121E-2,4.383874E-3,-8.004124E-3,4.960448E-3,-2.9076463E-2],"categories":[],"categories_nodes":[],"categories_segments":[],"categories_sizes":[],"default_left":[0,0,0,0,0,0,0,0,0,0,0,0,0,0,0],"id":80,"left_children":[1,3,5,7,9,11,13,-1,-1,-1,-1,-1,-1,-1,-1],"loss_changes":[3.9205444E0,9.983082E0,5.3062057E0,4.926902E0,9.122666E0,3.4121895E0,1.46612835E1,0E0,0E0,0E0,0E0,0E0,0E0,0E0,0E0],"parents":[2147483647,0,0,1,1,2,2,3,3,4,4,5,5,6,6],"right_children":[2,4,6,8,10,12,14,-1,-1,-1,-1,-1,-1,-1,-1],"split_conditions":[5.17E0,4E0,1.7E1,6E0,6E0,1.336E1,1.052E1,-3.7295036E-2,1.99745E-4,-2.7036672E-2,1.2896121E-2,4.383874E-3,-8.004124E-3,4.960448E-3,-2.9076463E-2],"split_indices":[0,2,1,3,1,0,0,0,0,0,0,0,0,0,0],"split_type":[0,0,0,0,0,0,0,0,0,0,0,0,0,0,0],"sum_hessian":[2.220223E3,2.3504843E2,1.9851746E3,8.365047E1,1.5139796E2,1.7145283E3,2.7064624E2,5.9721626E1,2.392884E1,3.5929703E1,1.1546827E2,1.5985209E3,1.1600744E2,1.7613377E2,9.4512474E1],"tree_param":{"num_deleted":"0","num_feature":"5","num_nodes":"15","size_leaf_vector":"1"}},{"base_weights":[-1.2062146E-2,-1.5152663E-1,2.2870873E-1,-4.234176E-1,-1.8268345E-2,-1.198213E-2,3.688196E-1,-3.613171E-2,-1.7070793E-2,-1.8862648E-2,1.1655193E-2,2.0802615E-2,-1.5480544E-2,-1.7832777E-2,2.9953685E-2],"categories":[],"categories_nodes":[],"categories_segments":[],"categories_sizes":[],"default_left":[0,0,0,0,0,0,0,0,0,0,0,0,0,0,0],"id":81,"left_children":[1,3,5,7,9,11,13,-1,-1,-1,-1,-1,-1,-1,-1],"loss_changes":[5.1296024E1,3.503784E1,1.8900602E1,5.1714516E0,3.0221651E1,1.346045E1,1.3160057E1,0E0,0E0,0E0,0E0,0E0,0E0,0E0,0E0],"parents":[2147483647,0,0,1,1,2,2,3,3,4,4,5,5,6,6],"right_children":[2,4,6,8,10,12,14,-1,-1,-1,-1,-1,-1,-1,-1],"split_conditions":[1.105E1,9E0,3E0,7E0,5E0,5.97E0,2E0,-3.613171E-2,-1.7070793E-2,-1.8862648E-2,1.1655193E-2,2.0802615E-2,-1.5480544E-2,